ID,vec_0,vec_1,vec_2,vec_3,vec_4,vec_5,vec_6,vec_7,vec_8,vec_9,vec_10,vec_11,vec_12,vec_13,vec_14,vec_15,vec_16,vec_17,vec_18,vec_19,vec_20,vec_21,vec_22,vec_23,vec_24,vec_25,vec_26,vec_27,vec_28,vec_29,vec_30,vec_31,vec_32,vec_33,vec_34,vec_35,vec_36,vec_37,vec_38,vec_39,vec_40,vec_41,vec_42,vec_43,vec_44,vec_45,vec_46,vec_47,vec_48,vec_49,vec_50,vec_51,vec_52,vec_53,vec_54,vec_55,vec_56,vec_57,vec_58,vec_59,vec_60,vec_61,vec_62,vec_63,vec_64,vec_65,vec_66,vec_67,vec_68,vec_69,vec_70,vec_71,vec_72,vec_73,vec_74,vec_75,vec_76,vec_77,vec_78,vec_79,vec_80,vec_81,vec_82,vec_83,vec_84,vec_85,vec_86,vec_87,vec_88,vec_89,vec_90,vec_91,vec_92,vec_93,vec_94,vec_95,vec_96,vec_97,vec_98,vec_99,vec_100,vec_101,vec_102,vec_103,vec_104,vec_105,vec_106,vec_107,vec_108,vec_109,vec_110,vec_111,vec_112,vec_113,vec_114,vec_115,vec_116,vec_117,vec_118,vec_119,vec_120,vec_121,vec_122,vec_123,vec_124,vec_125,vec_126,vec_127,vec_128,vec_129,vec_130,vec_131,vec_132,vec_133,vec_134,vec_135,vec_136,vec_137,vec_138,vec_139,vec_140,vec_141,vec_142,vec_143,vec_144,vec_145,vec_146,vec_147,vec_148,vec_149,vec_150,vec_151,vec_152,vec_153,vec_154,vec_155,vec_156,vec_157,vec_158,vec_159,vec_160,vec_161,vec_162,vec_163,vec_164,vec_165,vec_166,vec_167,vec_168,vec_169,vec_170,vec_171,vec_172,vec_173,vec_174,vec_175,vec_176,vec_177,vec_178,vec_179,vec_180,vec_181,vec_182,vec_183,vec_184,vec_185,vec_186,vec_187,vec_188,vec_189,vec_190,vec_191,vec_192,vec_193,vec_194,vec_195,vec_196,vec_197,vec_198,vec_199,vec_200,vec_201,vec_202,vec_203,vec_204,vec_205,vec_206,vec_207,vec_208,vec_209,vec_210,vec_211,vec_212,vec_213,vec_214,vec_215,vec_216,vec_217,vec_218,vec_219,vec_220,vec_221,vec_222,vec_223,vec_224,vec_225,vec_226,vec_227,vec_228,vec_229,vec_230,vec_231,vec_232,vec_233,vec_234,vec_235,vec_236,vec_237,vec_238,vec_239,vec_240,vec_241,vec_242,vec_243,vec_244,vec_245,vec_246,vec_247,vec_248,vec_249,vec_250,vec_251,vec_252,vec_253,vec_254,vec_255,vec_256,vec_257,vec_258,vec_259,vec_260,vec_261,vec_262,vec_263,vec_264,vec_265,vec_266,vec_267,vec_268,vec_269,vec_270,vec_271,vec_272,vec_273,vec_274,vec_275,vec_276,vec_277,vec_278,vec_279,vec_280,vec_281,vec_282,vec_283,vec_284,vec_285,vec_286,vec_287,vec_288,vec_289,vec_290,vec_291,vec_292,vec_293,vec_294,vec_295,vec_296,vec_297,vec_298,vec_299,vec_300,vec_301,vec_302,vec_303,vec_304,vec_305,vec_306,vec_307,vec_308,vec_309,vec_310,vec_311,vec_312,vec_313,vec_314,vec_315,vec_316,vec_317,vec_318,vec_319,vec_320,vec_321,vec_322,vec_323,vec_324,vec_325,vec_326,vec_327,vec_328,vec_329,vec_330,vec_331,vec_332,vec_333,vec_334,vec_335,vec_336,vec_337,vec_338,vec_339,vec_340,vec_341,vec_342,vec_343,vec_344,vec_345,vec_346,vec_347,vec_348,vec_349,vec_350,vec_351,vec_352,vec_353,vec_354,vec_355,vec_356,vec_357,vec_358,vec_359,vec_360,vec_361,vec_362,vec_363,vec_364,vec_365,vec_366,vec_367,vec_368,vec_369,vec_370,vec_371,vec_372,vec_373,vec_374,vec_375,vec_376,vec_377,vec_378,vec_379,vec_380,vec_381,vec_382,vec_383,vec_384,vec_385,vec_386,vec_387,vec_388,vec_389,vec_390,vec_391,vec_392,vec_393,vec_394,vec_395,vec_396,vec_397,vec_398,vec_399,vec_400,vec_401,vec_402,vec_403,vec_404,vec_405,vec_406,vec_407,vec_408,vec_409,vec_410,vec_411,vec_412,vec_413,vec_414,vec_415,vec_416,vec_417,vec_418,vec_419,vec_420,vec_421,vec_422,vec_423,vec_424,vec_425,vec_426,vec_427,vec_428,vec_429,vec_430,vec_431,vec_432,vec_433,vec_434,vec_435,vec_436,vec_437,vec_438,vec_439,vec_440,vec_441,vec_442,vec_443,vec_444,vec_445,vec_446,vec_447,vec_448,vec_449,vec_450,vec_451,vec_452,vec_453,vec_454,vec_455,vec_456,vec_457,vec_458,vec_459,vec_460,vec_461,vec_462,vec_463,vec_464,vec_465,vec_466,vec_467,vec_468,vec_469,vec_470,vec_471,vec_472,vec_473,vec_474,vec_475,vec_476,vec_477,vec_478,vec_479,vec_480,vec_481,vec_482,vec_483,vec_484,vec_485,vec_486,vec_487,vec_488,vec_489,vec_490,vec_491,vec_492,vec_493,vec_494,vec_495,vec_496,vec_497,vec_498,vec_499,vec_500,vec_501,vec_502,vec_503,vec_504,vec_505,vec_506,vec_507,vec_508,vec_509,vec_510,vec_511,vec_512,vec_513,vec_514,vec_515,vec_516,vec_517,vec_518,vec_519,vec_520,vec_521,vec_522,vec_523,vec_524,vec_525,vec_526,vec_527,vec_528,vec_529,vec_530,vec_531,vec_532,vec_533,vec_534,vec_535,vec_536,vec_537,vec_538,vec_539,vec_540,vec_541,vec_542,vec_543,vec_544,vec_545,vec_546,vec_547,vec_548,vec_549,vec_550,vec_551,vec_552,vec_553,vec_554,vec_555,vec_556,vec_557,vec_558,vec_559,vec_560,vec_561,vec_562,vec_563,vec_564,vec_565,vec_566,vec_567,vec_568,vec_569,vec_570,vec_571,vec_572,vec_573,vec_574,vec_575,vec_576,vec_577,vec_578,vec_579,vec_580,vec_581,vec_582,vec_583,vec_584,vec_585,vec_586,vec_587,vec_588,vec_589,vec_590,vec_591,vec_592,vec_593,vec_594,vec_595,vec_596,vec_597,vec_598,vec_599,vec_600,vec_601,vec_602,vec_603,vec_604,vec_605,vec_606,vec_607,vec_608,vec_609,vec_610,vec_611,vec_612,vec_613,vec_614,vec_615,vec_616,vec_617,vec_618,vec_619,vec_620,vec_621,vec_622,vec_623,vec_624,vec_625,vec_626,vec_627,vec_628,vec_629,vec_630,vec_631,vec_632,vec_633,vec_634,vec_635,vec_636,vec_637,vec_638,vec_639,vec_640,vec_641,vec_642,vec_643,vec_644,vec_645,vec_646,vec_647,vec_648,vec_649,vec_650,vec_651,vec_652,vec_653,vec_654,vec_655,vec_656,vec_657,vec_658,vec_659,vec_660,vec_661,vec_662,vec_663,vec_664,vec_665,vec_666,vec_667,vec_668,vec_669,vec_670,vec_671,vec_672,vec_673,vec_674,vec_675,vec_676,vec_677,vec_678,vec_679,vec_680,vec_681,vec_682,vec_683,vec_684,vec_685,vec_686,vec_687,vec_688,vec_689,vec_690,vec_691,vec_692,vec_693,vec_694,vec_695,vec_696,vec_697,vec_698,vec_699,vec_700,vec_701,vec_702,vec_703,vec_704,vec_705,vec_706,vec_707,vec_708,vec_709,vec_710,vec_711,vec_712,vec_713,vec_714,vec_715,vec_716,vec_717,vec_718,vec_719,vec_720,vec_721,vec_722,vec_723,vec_724,vec_725,vec_726,vec_727,vec_728,vec_729,vec_730,vec_731,vec_732,vec_733,vec_734,vec_735,vec_736,vec_737,vec_738,vec_739,vec_740,vec_741,vec_742,vec_743,vec_744,vec_745,vec_746,vec_747,vec_748,vec_749,vec_750,vec_751,vec_752,vec_753,vec_754,vec_755,vec_756,vec_757,vec_758,vec_759,vec_760,vec_761,vec_762,vec_763,vec_764,vec_765,vec_766,vec_767
TEST_001,0.02468424,0.050426424,-0.011303024,0.02260953,-0.012031996,0.023739787,-0.024657758,0.004406947,0.028748479,-0.005923506,-0.0145242065,-0.024615947,-0.0017714535,-0.0290927,-0.0047486126,0.005726836,0.03334858,-0.00030090797,0.04734797,-0.003652487,-0.009552525,-0.020900391,0.04156474,0.035165966,-0.009023212,0.038499214,0.0016110183,0.00033636368,0.01724444,-0.01312951,-0.00871586,0.00090978027,0.0103984615,-0.021058334,0.044107653,-0.0010111685,-0.01881921,-0.045010272,0.006558707,0.018186564,0.031711373,0.020753885,-0.010311227,0.029144216,-0.0045768637,0.020239323,-0.030715954,0.007925532,-0.008226513,-0.0024422056,-0.0123335365,0.012727258,-0.01172307,0.006500803,0.012792785,-0.034943417,-0.0021430862,-0.018620664,-0.017493505,-0.07161035,-0.009508234,-0.028212348,-0.031181676,0.012752373,0.04987078,-0.007948036,0.014057046,-0.026527207,0.026917329,-0.016624155,-0.0046367254,0.034755226,0.044719234,0.0024390388,0.01705209,0.040413804,0.015837064,-0.029428285,0.006094517,0.034241863,-0.00951833,-0.0009781023,-0.022990607,-0.024503129,-0.007644913,0.00691963,0.005288702,0.011481291,0.0060750926,0.013326614,0.029179694,-0.028040467,-0.0011143822,0.0019132087,-0.0038382143,0.01956143,-0.016214058,-0.03692111,0.007128815,-0.016299747,-0.03526493,0.012821756,0.03183752,0.017193254,-0.023158299,-0.04921467,-0.018156918,-0.021966364,-0.008918884,-0.05079122,0.015397925,0.010897673,-0.025228422,-0.015249163,-0.005894833,-0.009911034,0.014391314,-0.021228181,-0.02236474,-0.03230562,-0.045492604,-0.021088576,0.015250739,0.009597166,0.012613032,-0.02302219,0.0011623278,-0.008746065,-0.021377021,0.013632522,0.016253022,0.100936174,0.006374867,-0.041572094,0.020277057,-0.0075469627,0.024371373,-0.02193186,-0.044315983,-0.021547878,0.0036102817,-0.009139331,-0.040450357,0.035820827,-0.026747074,-0.024947666,0.0055179065,0.07909397,0.022073941,0.02051971,0.01297133,-0.029508637,0.008418336,0.02780286,0.023855306,-0.010967413,-0.03481351,-0.038977094,-0.0101202605,-0.012042521,-0.0023110905,-0.029974813,-0.01789675,0.03163193,-0.020498198,-0.033292912,-0.037093483,0.009977624,0.009997257,-0.012256015,-0.004233942,0.023597306,-0.0005674285,0.002362142,-0.02031705,-0.0021168976,-0.04693075,0.009222169,0.057781555,0.030084044,0.09103615,-0.04190662,-0.008630086,-0.003495266,-0.00013263464,-0.020252295,-0.039327435,0.006076315,-0.0048913253,-0.022589538,0.022053294,-0.010875208,0.0070204563,-0.020004319,-0.02781381,0.032878913,0.025234628,0.030461226,-0.011350452,-0.017761206,-0.022085752,-0.034447335,-0.0077144355,-0.008852577,-0.02030816,0.02081179,-0.0072952723,-0.041218672,0.016889563,0.013564969,0.00851831,0.022994692,-0.013682225,-0.012392016,0.01798988,-0.02078754,0.028320229,0.03310653,0.015964374,-0.0348551,0.0032933266,0.040426813,-0.038858544,0.017297773,0.0073989294,-0.012021561,0.012670837,0.022508359,0.035820037,0.0020255223,0.0072850143,-0.015129101,-0.032619968,0.02736665,0.023843586,-0.00891559,0.013236688,-0.0072687487,-0.005395004,-0.03379646,-0.009381945,-0.01342751,0.003914369,0.018997444,-0.014338979,-0.019181186,-0.030266985,-0.008856987,-0.0022636815,0.006624771,0.010587442,0.00028897467,0.01086702,-0.023550753,0.009113062,0.0048140814,-0.0030753808,0.023377074,-0.008811659,-0.0096789375,-0.0021873536,-0.023575585,-0.024925478,-0.028879814,-0.025749203,0.0132683115,0.0286167,-0.03702027,-0.008653358,-0.014015725,0.005383311,-0.0027165685,-0.017317463,0.008307201,0.0047700163,0.032115627,-0.0022430986,-0.009077844,-0.027843352,-0.0014150814,-0.020413019,-0.07519625,0.02622873,0.06165349,0.030634891,-0.024320625,0.014090106,0.016105264,0.010210629,-0.02017644,0.004203562,0.019473856,-0.06429554,-0.00908744,-0.02350717,-0.015037008,-0.03449597,0.0074041067,-0.021650773,0.0060350704,0.0017869506,0.010870511,0.0077433754,-0.008145114,-0.021596875,-0.019733733,-0.027105559,0.0076649394,0.032815587,-0.009222571,-0.036666088,-0.0064379317,-0.029486563,0.077356994,-0.008822069,0.0019791105,-0.06848107,0.008897639,-0.0027840647,0.0028158391,0.016340245,-0.039307322,-0.0063692164,0.024067482,-0.00247246,0.014671097,0.016791089,-0.031156031,0.023158517,-0.02542384,-0.0173379,0.0356667,-0.016721958,0.011027988,-0.01635151,0.028652672,0.0026895562,-0.024395192,-0.004492767,-0.020110328,0.020613736,0.009763902,-0.02944197,0.009798384,-0.0276765,-0.011262354,0.017512772,0.051239826,-0.013079753,0.019859333,0.0059277103,0.012802644,-0.016820561,0.02111952,0.00050764217,-0.018569987,0.002935274,-0.0053618355,-0.007192054,-0.0048039597,-0.026537262,0.0035256403,0.041487213,0.02061951,-0.034326557,-0.01069602,0.03140314,-0.04847396,0.0054728165,0.019852698,0.01393383,-0.0063209203,-0.0011719498,0.015820812,-0.016295848,-0.024864169,0.018608404,0.0042600147,-0.022503657,-0.0057986416,-0.030722842,0.027471235,0.015504856,-0.034928694,-0.009838699,0.008111528,-0.019531442,-0.0048708343,-0.025698034,-0.011798026,0.04877623,-0.00895684,0.012248257,0.017937947,-0.029862763,0.0013662581,-0.018805157,-0.015099395,0.021187652,-0.016102577,-0.002120533,0.02776994,0.029386187,0.0035539225,-0.100926764,-0.032736037,0.014991916,0.031529725,-0.0026021488,-0.008503878,0.03196872,-0.066574745,0.035968497,-0.48465845,0.004188933,0.0174847,0.010657601,-0.010820548,-0.0056588324,0.017443752,0.034254752,0.005121344,0.0020135846,-0.005289643,0.034083914,0.0058534658,-0.0067693503,-0.013572031,0.025350045,0.0155023625,-0.014580721,0.006809807,-0.03781166,0.01695417,-0.0063390643,-0.010815295,0.010322152,0.022341851,0.033315137,-0.034970675,0.060305595,0.009326989,0.039523542,-0.013488818,-0.006412974,-0.0014114553,-0.009658119,0.04030373,0.016072126,0.0025976468,0.0070612845,-0.016912075,0.044402614,0.025153905,-0.022064172,-0.055959247,-0.042789295,-0.025266234,-0.008149802,-0.014100094,-0.00031675622,-0.019604865,0.0061835716,-0.0019808607,-0.09586954,0.0029172504,-0.025254283,0.100960776,0.0095176,0.009538524,-0.0011485204,0.007451048,0.04245345,0.0039999904,-0.0057692453,0.0076479176,0.04648328,-0.010794389,-0.031910572,0.0071240063,-0.004222383,-0.02587661,0.016946265,-0.009795381,0.020088863,-0.009799558,-0.005901649,0.018346451,-0.013559251,-0.007009113,0.020868296,-0.015577374,-0.016591024,-0.011274608,0.03933486,0.0024005403,-0.026500367,0.016966408,-0.008542462,0.016095964,-0.025030285,-0.030010499,0.037845146,0.04183944,0.002164575,0.0065801265,0.0071948655,0.0038680474,-0.045862492,-0.0025993339,-0.009469683,-0.017258348,-0.022494266,-0.005545889,0.008035352,-0.004524805,-0.010648284,0.014558218,0.008072626,-0.06893553,0.021826224,-0.021571374,0.0021260057,-0.0022627423,-0.0043876097,-0.016586663,0.0021781167,-0.020882377,-0.09945611,-0.017866991,-0.013415238,0.0072094603,0.015915696,-0.0015681664,0.0074294247,-0.013375379,0.0010539008,0.011011324,0.0030361784,0.004007941,-0.010648911,-0.035718244,0.044133816,0.048286255,0.023668058,-0.034389988,-0.020548375,-0.026108181,0.031583995,0.0031159727,0.010350766,-0.057240456,-0.008332812,0.016997173,-0.013160772,-0.019212488,-0.0064698257,-0.024006333,0.012370335,-0.00699026,0.056282513,-0.0073934016,-0.009687457,0.027895592,-0.028060166,-0.019066358,0.03104751,-0.0014031699,-0.0077123824,0.02076136,0.0031086376,0.03998661,-0.015415435,0.024944188,-0.0044364724,-0.0148476,0.03190515,0.016462402,-0.03073792,0.009734617,-0.00861834,-0.006430888,0.0009635307,0.0041229497,0.013437941,0.036209747,0.013513346,-0.0010213584,-0.0032606972,-0.009594294,-0.0072506373,0.0010401764,0.0029578828,0.033354126,-0.02684455,-0.020946555,0.0037156837,-0.021966938,0.008394062,-0.011293527,-0.03145679,0.013533069,0.018381696,0.017283889,0.022404267,-0.0021469488,0.017349778,0.009257935,0.0022461289,-0.009679826,-0.019407857,-0.0042508543,0.010634944,0.029634217,0.052699726,-0.026896263,0.00391782,-0.040125143,0.031908978,-0.00017083852,0.009566255,-0.0072370884,0.02620654,0.0029635127,-0.014158018,-0.04917491,-0.04666325,0.020159762,0.0027128337,-0.046363022,0.0012090784,-0.027879518,0.009866424,0.021374922,-0.0066304523,0.010541583,0.034316726,0.03179647,-0.002244247,-0.016971014,-0.0012903884,-0.01757485,0.04131901,0.009816421,0.5193355,0.002701881,-0.005769689,0.012622769,0.02801283,-0.028331079,0.003253346,-0.024202703,-0.00851438,-0.02227585,0.009771424,0.016307546,0.037643414,-0.014626572,0.015388837,0.07409191,-0.01776231,0.009702346,-0.00849361,-0.016209425,0.0012851841,0.0052432073,0.012169483,0.004952109,-0.019848296,0.012222442,0.01774317,-0.0190296,-0.034235284,0.02069895,0.017739518,0.051458664,0.0013843566,-0.01541676,-0.022644646,0.015769983,0.0027360294,0.010449913,-0.0043031033,-0.017122565,-0.04070792,0.02571922,-0.0038493213,-0.006548586,0.024765095,-0.024686081,0.0031970076,-0.039042626,0.14284348,-0.00864703,-0.014596275,-0.032907553,-0.05250274,0.011608305,0.016503343,-0.020540284,0.016505755,0.006266723,0.00264113,0.010468686,0.042129006,-0.023447914,0.025147041,-0.0037244004,0.020270988,-0.0114331385,-0.00539326,-0.0019809448,0.0009418384,0.054518133,-0.016957035,-0.00033456893,0.036923353,-0.004379536,0.012206335,-0.020708626,-0.0012951863,0.008824895,0.027874447,-0.057393767,-0.08930897,0.06117018,-0.010352061,0.012032127,0.012658826,0.010089595,0.018420862,-0.014940839,0.035480563,0.017792536,0.002720095,-0.013715963,0.023468269,0.030348418,-0.04372947,-0.0020286532,0.008095665,0.002384886,0.002798323,0.0021909578,-0.024194673,0.0063648135,0.008107623,0.010004929,-0.030393653,0.0013922044,0.06727613,-0.008122214,-0.0063306293,0.006855286,-0.00013233992,-0.06996065,0.024448484,-0.01775082,0.005180557,0.01275294,-0.017191062,-0.0019066137,-0.019613845,-0.018676525,0.045355637,0.0032000022,0.0047968603,0.015748806
TEST_002,0.02729359,0.021323282,0.002134424,-0.0005229542,0.008687878,0.038458727,-0.015361888,0.01728426,0.018840035,0.017539898,0.019242046,-0.02970387,-0.020045832,-0.0015914047,-0.0021414426,-0.0112034185,0.01931992,-0.012024926,0.009346408,-0.011072635,0.0051777107,-0.004471959,0.066092685,0.02719967,0.0036777542,0.0014100168,-0.0038104325,-0.0044491095,0.041579574,0.004666265,-0.035576053,-0.005764263,0.015850984,-0.012963309,0.0379712,0.01498408,-0.03499169,-0.0173332,0.017691676,0.024665972,-0.0014131902,0.029688956,-0.027420541,-0.010197343,0.003045684,-0.02467957,0.015060852,-0.003931634,0.014827963,-0.030990073,-0.040847432,-0.02517365,-0.016988138,-0.023901211,-0.025519812,-0.020809818,0.010767484,-0.026724065,-0.013457121,-0.013822796,-0.025946787,-0.041982375,-0.0057580383,-0.00830317,0.070619166,0.0052437573,-0.0098752575,0.009276893,0.046279866,-0.026787128,0.024951864,-0.024643777,0.06358203,0.0246124,-0.0050981017,0.0017708422,0.025257217,-0.027136538,-0.019885002,0.002295992,0.0040715476,0.000715518,-0.03411893,0.0021504764,-0.035646643,-0.016735397,-0.038105667,0.03063318,0.040736616,0.04738178,0.0038515043,0.002109571,0.007409151,-0.020064717,0.0008284549,0.012202962,-0.002094783,0.037982803,-0.020763582,-0.009698625,-0.023724673,0.02703657,0.04003128,-0.012731355,0.0033498406,-0.015320315,-0.036643013,-0.030247467,0.014636519,-0.12847833,-0.0033441908,0.00907883,-0.000716637,0.040736493,0.0065004453,0.008147875,-0.009666172,-0.0037105419,-0.076888464,-0.0026068708,-0.099320956,-0.034811098,0.0053020203,0.017083976,-0.027088009,-0.082876205,-0.00015991603,-0.0064672856,0.022157788,0.008167453,-0.03441101,0.0425531,0.0073197833,-0.032507967,0.004045648,-0.032285895,-0.0105201425,-0.024027592,0.021074025,-0.030340966,0.0066511924,0.019926677,0.0028229738,0.020251194,0.03848195,-0.022867812,0.011096112,-0.00045449354,0.018263126,0.0028370747,0.025279721,0.0008123464,0.046345655,0.012296635,0.03691283,0.026592718,-0.010669674,-0.055391252,0.004600478,0.031605337,0.016345691,0.031236708,0.007343786,0.035271,-0.043397482,-0.009540514,-0.031531636,-0.010065453,-0.028311318,0.0012130548,0.013386324,0.014640057,0.01110825,-2.0154566e-05,0.010980793,-0.036923602,-0.014605981,0.025839739,0.024566177,0.016499083,0.12560217,-0.0282741,-0.012024884,0.0388522,-0.012311726,-0.016345004,-0.013857365,0.012307282,-0.011878046,0.0005074909,0.04288197,0.0020004997,-0.0091646,0.008391499,0.05616174,-0.00016970077,-0.051783532,0.024695283,-0.0058669196,-0.0026602768,0.014983046,-0.060524184,0.02092189,0.001065651,-0.026051028,-0.01812486,-0.018796885,-0.009288871,0.038911197,-0.0076722386,0.04625236,0.047889702,0.01633147,-0.0056483103,0.011707252,0.020754771,-0.03342823,0.0066904933,0.018960388,-0.03659178,0.030057944,0.03393857,0.019512994,0.010011727,0.033214595,-0.018450545,0.030426405,0.02375973,0.005468587,-0.0005200218,-0.003675374,0.002645132,0.02491186,-0.02890188,0.049644202,-0.04485164,-0.012435588,-0.014644995,0.026601708,-0.017156867,-0.031280767,0.023162212,-0.011659813,0.017461397,-0.024432972,0.019871507,-0.051860772,0.020033104,-0.023295907,-0.026941013,-0.018887473,-0.007737571,0.0096726185,0.047107197,0.004719458,-0.015158105,0.006532438,0.012305438,0.03287508,0.01225547,-0.00966566,-0.021093981,0.01883723,-0.033072997,0.017471235,-0.025255755,0.013184102,0.025072027,-0.0012989221,-0.006509895,-0.024898738,0.014495408,-0.021779656,-0.037717834,0.010831813,0.02958563,0.0068991077,0.01065469,-0.011448022,0.0228287,-0.0010802319,-0.057080775,0.015270329,0.039482746,0.0059677092,-0.0058532823,0.004611381,0.030334458,-0.036700856,-0.024056165,0.0059722806,0.011746308,-0.048973814,-0.015415748,-0.0111781685,-0.00071687833,-0.010774242,0.0012085434,0.009836315,-0.0047768373,0.018720565,0.013776385,-0.00962367,-0.016235096,0.010436784,0.018822374,-0.016955506,0.008042756,0.02047213,-0.017597824,0.010737538,0.018773029,-0.013126896,0.05622445,-0.01188664,-0.0049093417,-0.059033856,0.024883164,-0.03935776,-0.019250114,0.008010352,-0.041904587,-0.002701319,0.006280119,0.018933065,-0.026571125,0.083482705,-0.015460565,0.02143067,-0.039725192,-0.024355477,0.013440141,0.0061747828,-0.02876998,-0.0031149297,0.01949988,-0.009318764,-0.024344662,-0.01329344,-0.027739013,-0.006461791,0.012303163,-0.014689437,-0.03753748,-0.018633094,-0.0015153517,0.03800686,0.034848075,-0.0330967,0.042987153,-0.00085946935,0.008099116,-0.038604733,0.026398363,-0.019928884,-0.022626756,0.0034419636,-0.014347882,0.0057770163,-0.019525655,-0.014471938,-0.011808686,0.018759202,0.050268073,-0.0076607736,0.018885545,0.050659165,0.011839558,0.005054192,-0.028303491,0.039039146,0.0070041623,0.010310022,0.007897921,-0.020292582,0.01437223,-0.04250245,-0.008629849,-0.016169336,0.001887926,-0.027107058,0.037070144,0.030194197,0.02177135,-0.00478457,0.008269189,0.020052822,-0.024018424,-0.04663292,-0.026309922,0.03192269,0.013507327,0.0070187724,0.04293905,-0.010346119,-0.01492471,-0.042354587,-0.03608741,-0.003017708,0.0020696323,0.017019615,0.033234842,0.0052636843,-0.016854528,-0.048985124,-0.041143324,0.006053143,0.028252348,0.046912666,0.008235069,-0.014239965,-0.056892537,-0.0033289378,-0.44090575,0.0022253797,-0.0039254758,0.01076544,0.011677966,0.013704418,2.9158382e-05,0.053095788,-0.0007869557,-0.012120585,-0.013838085,0.08168033,-0.022926364,-0.024162939,-0.025075346,0.0064574047,-0.018003888,-0.012002711,0.006601009,-0.03652517,0.03118961,0.0008632602,-0.0099051725,-0.00055001443,0.046658117,-0.014133707,-0.0047591557,0.050063487,-0.00011217306,0.0191273,0.010625403,-0.036816202,-0.024978714,0.027415285,0.0141711375,0.006795031,-0.022130076,-0.05643587,-0.0080511365,0.061289392,-0.019845344,0.01041264,-0.00799509,-0.050023455,-0.013093944,0.009097423,0.0354095,-0.0056815515,0.008457647,-0.0044402434,-0.1619293,-0.010099282,-0.023282524,0.008284458,0.08548648,-0.01342942,0.021548973,0.035341308,0.030899895,0.010294488,0.013717979,-0.005678194,-0.012591363,0.03880458,-0.008206455,0.0057638455,-0.04278696,-0.017295996,-0.011680721,-0.012063124,-0.019044396,-0.0019089541,0.022024581,-0.0018644112,0.03333992,-0.02184757,-0.010326737,0.015859732,-0.012271625,-0.023418067,-0.0017697453,-0.0075093033,0.019980932,-0.029434854,0.0029796474,-0.030194353,0.045091026,0.00431794,-0.050251912,0.035556998,-0.0077236863,-0.034408342,-0.039457522,-0.0027897821,0.025544085,-0.01600995,0.0017026343,0.013829329,-0.006217159,-0.021005804,-0.022901872,0.016137576,0.0010266794,-0.026271755,0.0061465325,-0.038412828,-0.06340242,0.030446427,-0.010919272,0.0030396187,0.007268962,-0.034539767,-0.024106309,-0.02450245,-0.029042197,-0.03686535,-0.003329799,-0.007830601,0.006338167,0.045183714,-0.0036396992,0.015720472,0.028607419,0.011332783,0.04404655,-0.024231223,0.040724624,0.017562587,0.013550506,-0.0206219,0.0543033,0.0071031475,-0.014202188,-0.026104745,0.007640338,-0.005244769,-0.024378864,0.012474071,0.04387671,-0.0120207695,0.012949491,0.012403216,-0.015710885,-0.04172914,-0.001575093,-0.022043759,-0.005404816,0.050775804,0.005789586,-0.009582121,0.029152576,-0.00095313706,-0.015920673,0.052707747,-0.0022668398,0.019073203,-0.0019166911,0.018388877,0.04840043,0.022234308,-0.011168388,0.005142114,0.02384106,0.04001082,0.05062635,0.010791964,-0.02259183,0.007188611,0.0053450153,-0.036546923,0.004922889,-0.001999353,0.04621634,0.002078872,0.024484148,0.048670895,0.00443902,-0.0081888735,0.0094311675,-0.021418447,-0.030199867,0.005275337,-0.0069468915,-0.00026135278,-0.029524986,0.016965156,-0.023597442,0.034385554,0.017100044,0.012653839,0.009970117,0.018321738,-0.015808241,-0.00946746,0.028670382,0.024973266,0.004771036,-0.033969816,0.022654826,0.0023481054,0.03296489,0.058742873,-0.00064666074,-0.014169624,-0.038703617,0.011954109,-0.010958836,-0.0046445234,-0.043221522,0.003420538,0.011181439,-0.04223057,-0.06905454,-0.057352614,0.041538794,-0.020146912,0.022819543,-0.025403898,0.0024827824,-0.010849334,0.06557501,0.002011098,-0.030541765,0.022035081,-0.026291037,-0.0056910054,-0.0053064353,0.0068799974,-0.0036033508,0.018971551,0.02143788,0.46978062,0.00842663,0.04797512,0.008497372,0.022187203,0.005474301,-0.0013692632,-0.0208835,0.009832302,0.0009670962,0.03233536,0.0039621894,0.022402862,0.022323726,-0.02358991,0.021648202,-0.06426928,0.037744466,0.039211225,-0.004071534,0.023865549,0.020651957,-0.013617795,0.0050819144,-0.029367004,-0.07023146,0.015039953,-0.002137669,0.043106385,0.03922393,-0.0138186775,-0.0235915,-0.028595904,0.017212955,-0.028193517,-0.017017407,-0.044108473,0.032878388,-0.00044339072,-0.03739441,-0.035098657,-0.019720044,0.015788069,-0.013056462,0.0020497134,0.012866089,0.020592716,0.042357605,0.107163996,0.0077773053,-0.02871772,-0.03844129,0.0039602723,0.024024986,-0.026928127,0.0043467497,-0.048405897,-0.009880056,-0.02512967,0.039741784,0.047936544,-0.00016927252,0.03675743,0.006797138,0.0015480206,-0.017536156,-0.0036941268,0.006946042,-0.0065781563,0.051434454,0.020498408,-0.014042453,0.009792971,0.017723972,0.0045732725,-0.031831097,-0.010597289,-0.0017302178,-0.07588299,-0.0039775977,-0.09293538,0.024536403,0.028736418,-0.0025664414,0.013533149,0.04182078,0.002523263,-0.03517755,0.042069092,-0.00441708,-0.023056662,-0.01860412,0.021744484,0.0148703875,0.005952481,0.0040263473,0.020645654,0.016214952,-0.0031175958,0.001061227,0.021635223,0.005671524,0.018469116,0.00015216324,0.03541213,0.0017685953,0.02038287,0.0054054228,-0.018530391,0.010994085,0.012018496,-0.013969027,0.028076481,0.003961919,0.027237287,0.022353837,-0.00055081566,0.016735228,0.010412784,-0.041138344,0.032746878,0.022358416,0.024835737,0.0065557733
TEST_003,0.039946873,0.0066341395,0.015061897,0.026927907,0.004264274,0.034844946,0.04449343,0.0065214164,-0.008718334,-0.010266699,-0.0015606725,-0.026204653,-0.031089434,0.009570708,-0.011996686,0.023342479,0.031524766,0.0077914763,0.00026044418,-0.034488145,0.020863755,-0.005384741,-0.003085875,0.013472758,-0.014371163,0.00687039,0.010707566,-0.02394108,-0.03482622,-0.03358457,-0.0034613074,0.044731878,-0.035322845,-0.0034533709,0.0023748314,0.012723879,-0.0023633519,-0.023062188,0.009591415,-0.00771831,0.03592968,0.05609435,-0.013896381,0.0039473786,0.011481439,-0.009611896,0.008203454,0.029738333,0.0010813284,-0.032415356,-0.010440745,0.026784284,0.004268781,-0.014286495,-0.0046677943,-0.03159747,0.027173707,-0.029765602,-0.015818348,-0.027500084,-0.013350889,-0.03493605,0.00086633745,0.0081712995,0.027921611,-0.00051579706,-0.060880017,0.01634348,-0.008128171,-0.011135057,-0.030087974,-0.007983784,-0.029283768,-0.006874725,-0.0026677882,0.031950314,-0.017509654,-0.002584017,-0.014688405,-0.02728362,-0.03176546,0.04932552,-0.014184614,-0.020045163,0.01428788,-0.040444255,0.011056107,0.036811378,0.0020389527,0.022201056,-0.003107856,0.01599049,-0.02995061,-0.022896132,0.021205697,-0.0025795316,-0.00023795788,-0.033855926,0.022426378,0.015657807,0.018051287,-0.021788256,-0.023021372,-0.027613783,-0.01441362,-0.040174566,0.066501975,-0.026459377,0.010520578,-0.007591211,0.0056049684,-0.003101134,0.0317572,0.028192462,0.021019086,0.017264409,-0.024461415,-0.0024758193,-0.0876671,0.023293763,-0.011842775,-0.009989656,0.008171795,0.015843865,0.0039272737,-0.01932994,-0.012764155,0.01588619,0.007902785,-0.016421221,0.023361523,-0.00034510772,0.020698888,0.004029871,-0.0086945025,-0.0660553,-0.009935843,-0.0077959304,0.03655434,-0.03518715,0.028937956,0.040161233,0.0002438276,-0.008501749,-0.0043538613,0.035553604,-0.0085385535,-0.018284924,-0.020230316,0.030613413,0.0016446107,0.0002664206,0.043065667,0.01695793,0.05131387,0.035048794,-0.0036199454,-0.013883353,-0.0010430225,-0.057409626,0.021860098,0.009568667,0.04052181,0.016361957,-0.014299637,-0.0077618114,0.007840509,-0.00275104,-0.017521463,-0.024165591,-0.026122654,-0.01688661,-0.0015968096,0.013377023,0.024548119,-0.018457515,0.03040605,-0.10229599,0.028727967,-0.034640167,0.14456788,-0.021905702,-0.0071342913,-0.009717168,0.035192646,0.0024573004,0.052750777,-0.0012693382,0.013312745,-0.016602097,0.0038550855,0.009482746,-0.0048491815,-0.021280743,0.0107855005,-0.0045598936,-0.03403193,-0.0021601724,-0.035964385,-0.04216489,0.010298203,-0.018465744,0.016135486,-0.024902582,0.0029872847,-0.027206507,-0.019019715,-0.004170963,-0.0022164674,-0.04706811,-0.026896043,0.018508958,-0.0105150305,-0.023665179,0.014397296,0.0048935967,-0.011488909,0.011203173,0.028492821,-0.0391329,-0.04355804,0.026473535,0.00077706185,-0.009168731,0.025636446,0.0052761566,0.014161493,0.017238615,0.0010961754,-0.0032607496,-0.010370157,0.059789374,0.07315603,-0.019620378,-0.007934676,0.004939176,9.9898134e-05,0.042343143,0.0031327505,0.02413382,-0.0039284,-0.017479008,-0.00334571,0.008498437,-0.03896161,0.06793341,-0.017546387,-0.0033469445,-0.021090295,-0.02430891,-0.01054833,-0.009623226,0.004946922,-0.003072646,0.009327444,-0.0001715863,0.0011288028,-0.0044832523,-0.036509402,0.0010298822,-0.026011998,-0.03217999,-0.023277938,-0.014463802,-0.014795792,0.02456679,-0.0024946623,0.00029917,-0.04107828,-0.037927307,-0.043538306,0.0056221825,0.02529657,0.018935272,-0.0052683777,0.015953312,0.031050736,0.013902178,0.027234912,0.017285135,-0.022836277,-0.020845156,0.008187995,-0.012252092,0.049175393,-0.02806452,0.001752147,-0.020097915,-0.0074234395,-0.02196985,-0.033824712,-0.035512466,-0.026515083,-0.0073179905,-0.009213834,-0.029803744,-0.004402441,0.0010199398,0.038286246,-0.038310125,-0.0006385069,0.013383797,0.0034470148,7.990702e-05,-0.02054425,0.026242532,0.002756385,0.015223786,0.029127555,0.018545795,0.032728355,0.003393356,-0.017958447,-0.0368469,9.424383e-06,-0.0016922996,-0.06862298,-0.007024983,-0.027303142,0.0037545753,-0.021905886,0.025555972,-0.019316733,0.010284111,-0.023240693,0.0030041828,-0.09937217,-0.0037605322,0.033452,0.005711167,-0.0011800098,-0.003795008,-0.018549237,0.00042984344,-0.019519305,-0.019581836,-0.027901985,-0.016373755,-0.026347592,0.025024261,-0.024092002,0.0050839563,-0.019206624,-0.018547852,0.0047385925,-0.0015661923,0.023888769,0.035498537,0.004699269,0.030876491,0.030388264,-0.008547258,-0.0021794904,0.01589948,-0.016944239,-0.026685705,-0.015946057,0.007907099,-0.01440694,0.031375676,0.03252622,-0.034470953,0.05462845,-0.008677194,-0.011304767,-0.020697538,0.052133106,-0.032476738,-0.009505569,0.0069167567,-0.014848555,-0.0034039496,-0.028942592,0.011088219,-0.009413883,-0.014877692,0.009024005,-0.0023007477,-0.028294384,-0.009447292,-0.00594,0.0059594833,0.004402289,0.010683608,-5.089528e-05,0.00028007996,0.022798358,-0.0069527375,-0.006325692,0.025304649,0.034097888,0.026393251,0.03447384,0.023880119,-0.026412766,0.008118901,-0.0047328244,-0.056874547,-0.021528587,0.024915282,-0.0324404,0.0020412407,0.001268186,-0.0111073,-0.026219975,-0.026477978,0.016591556,0.022044692,-0.0017777112,-0.0028435227,-0.02262991,-0.01527366,0.023089567,-0.4311011,-0.019532844,-0.015812617,-0.011543932,-0.0196528,-0.005476991,-0.040809076,0.055900607,0.014286585,-0.025826396,0.02252183,0.027469877,-0.03529964,-0.031855073,-0.0149227865,0.0098138945,0.010564258,0.007826163,0.0002940401,-0.017529113,0.009755575,0.0028394593,0.026200464,0.013507998,0.028244521,-0.012391303,-0.023764553,0.057999473,-0.03841329,0.0028691979,-0.026585149,-0.036162935,-0.012266,-0.014060556,0.033236593,-0.00023625296,-0.008255042,-0.0045646676,-0.022850782,0.009360991,-0.0141799,0.033561487,-0.0051783277,-0.001773774,-0.026525388,0.024083603,-0.002663373,-0.011288171,0.0130674075,0.009722559,-0.11078578,-0.031566527,-0.035475764,-0.023667315,0.19491167,0.032861684,-0.014695326,0.0168219,0.021138433,0.020093113,0.018673817,0.028430577,-0.024600161,-0.012768745,-0.005179319,-0.0021852353,-0.008131758,-0.0078484025,0.019162158,0.04052001,-0.020922871,0.04998444,-0.015422622,-0.007957539,0.005991216,0.03180098,-0.016910074,0.0015904529,0.030313602,-0.06001313,-0.005415802,0.012989446,-0.018659392,-0.008519061,0.00828769,0.0055904593,-0.029365195,0.020166583,0.01190807,0.023152124,0.007720966,-0.02212055,0.005561854,0.0067639407,0.011497304,0.040144466,0.0045504086,0.024936352,-0.00472773,0.002875707,-0.020862263,0.009936773,-0.01039773,0.030748375,-0.005754385,-0.007519319,-0.032690194,0.036323693,-0.007367949,0.011089575,0.033435635,0.01725684,-0.022680366,0.02523941,-0.0011380254,0.04241636,0.0029186031,-0.012395879,0.009511494,0.04642727,0.0033133947,-0.0007831692,0.018789148,-0.0003802604,0.019961523,0.05477509,-0.018400194,0.0029332107,0.08226295,-0.009986996,0.022780744,-0.073811084,0.017784962,-0.0026159934,-0.032058235,0.01358685,-0.008472901,0.007747634,0.025801864,-0.039740343,0.016009955,0.007013835,-0.00034115874,-0.10076526,-0.06009279,0.028396575,0.003775807,-0.054966193,-0.028519876,-0.00078059826,0.046304964,-0.025831144,0.013653531,0.024584848,-0.018108306,-0.027906055,-0.031280316,-0.013761925,-0.030320948,-0.01003501,0.017815579,-0.027315386,-0.028545173,0.008869342,0.0072906795,0.011689035,-0.037836302,0.03868747,0.0048740604,0.00062760734,0.03522389,-0.019974181,0.012638076,0.024694175,0.0168201,0.015554317,0.0072434843,-0.009709962,-1.5029856e-05,-0.060747426,0.014991984,0.0010909339,-0.022713242,-0.0044319695,0.028323613,0.00042072803,-0.03509924,-0.018517245,0.037514433,-0.009406703,0.034846906,-0.005397451,-0.03357812,0.019356307,-0.009989655,0.05453992,-0.006973618,-0.017375933,0.027809111,-0.008280668,-0.02177296,-0.0005818892,0.023917105,0.037644938,-0.014547615,0.026801303,-0.009639022,0.049872953,-0.002440738,0.057136327,0.00085473916,-0.061867822,-0.033922568,-0.030477062,0.044090394,0.008258289,-0.012758594,0.0037703407,0.011313315,-0.019729856,0.0026459473,-0.021289209,0.018904062,0.030131545,-0.017856982,-0.0005533132,0.010566038,0.007524175,0.018152455,-0.02603092,0.020102164,0.46484956,0.007989421,0.020740146,-0.010906774,0.022721307,-0.0015773022,0.01448248,-0.0050128903,-0.0025076664,-0.035622302,-0.0117315,-0.016690329,-0.010190895,0.011443354,0.004256734,0.10425837,0.0051973644,0.006660578,0.05428109,-0.025241088,0.0036026542,0.025289388,0.029545235,0.01767382,-0.013056652,0.07628858,0.018398773,-0.00675238,-0.01489256,0.021430952,-0.0056098853,-0.010056767,0.009648159,0.013600628,0.007136867,0.007131998,-0.010011194,0.039842337,0.001789412,0.004063362,0.012012988,-0.008891563,-0.04289258,0.023116939,0.0070309327,0.0016971538,0.0020277502,-0.0013018672,0.12617233,0.03483236,-0.056135323,-0.010850393,-0.05495365,-0.036849022,-0.0015360867,-0.020502927,0.0229461,0.026127899,-0.028874455,0.06815787,0.02615309,0.036369037,-0.026892865,-0.032763388,0.020524347,-0.04176773,0.0013956412,-0.023546817,-0.0043240646,0.013839281,-0.03314623,-0.0138313,0.046500687,0.011733974,0.036827408,-0.0033284747,0.0070327166,-0.0083304085,0.033767056,0.11937246,0.004717817,0.12320441,-0.02551916,0.008590438,0.0106318155,0.019336296,0.012512624,-0.0057149064,-0.015239678,-0.021851523,0.014657627,-0.021855105,-0.05301011,0.021899128,-0.01363538,0.0024496815,0.04178249,0.0036831636,-0.0019029917,0.0070626806,0.013681848,-0.054346595,0.021926032,0.016553842,0.014092069,-0.0010749558,0.013726138,0.020790258,-0.014322206,0.00036851192,0.007091917,-0.052562132,-0.010380233,0.0036903222,-0.0019727817,0.005581662,-0.036457684,0.0032817011,-0.02935892,-0.010658981,-0.0050854622,-0.010377167,-0.019181428,0.026646176
TEST_004,-0.018977256,0.044004142,-0.027146356,0.003311163,0.018358015,-0.008963185,-0.03182707,-0.04415111,0.018142074,-0.017728318,0.029758258,-0.03135414,0.008110052,-0.020560667,0.0020197236,-0.006826432,-0.04647879,0.0011089491,0.009890305,0.009945427,-0.0016899575,-0.027202006,-0.009494195,-0.0029784958,-0.010324548,-0.0017333182,0.0066294475,-0.004494002,0.03952836,-0.0006432389,-0.027533403,0.006259326,-0.014155214,-0.011788121,0.021627126,0.018726876,-0.012689985,-0.024203204,0.012401652,0.027317824,0.023060417,0.018953232,-0.012706785,0.018084418,0.008570724,-0.0027720472,-0.00749421,0.025022408,-0.0120349545,0.009005311,0.007030092,0.014942012,0.03102901,-0.013682799,-0.006581224,0.014561424,0.00014445666,0.00434895,0.0225497,-0.024795739,-0.01335248,-0.0058187926,-0.041755114,0.011453812,0.010478056,-0.005845161,-0.030149445,0.030113548,-0.02227566,0.011384041,0.03803017,0.039331585,0.022719193,0.03847153,-0.00396979,0.03691404,0.01294388,0.031158848,-0.008471798,0.010081795,0.0014170982,0.013831165,-0.053343337,-0.0015669372,-0.024937836,-0.010231908,-0.03764843,-0.003040875,-0.05982406,0.012304273,0.0050834585,0.009272115,0.010771382,-0.009664424,-0.027804213,0.009104013,-0.009592226,-0.032085795,0.021645326,-0.022057118,-0.0007558305,0.01218234,0.022038553,0.009999494,0.021299953,0.017540552,-0.02497229,-0.031500284,-0.00061738305,-0.012925307,-9.170761e-06,0.010082185,0.011366174,0.0073082903,-0.020785924,0.0062535703,-0.009899151,-0.00023514905,-0.10400629,0.008273471,-0.048189856,0.012303216,0.010487461,0.016277077,-0.041324947,-0.039125126,-0.011094517,0.011649588,0.005642779,-0.016761323,-0.015947597,0.060658813,0.031496704,0.039272085,-0.009090871,0.020885477,-0.041615907,0.0039042912,0.030366698,0.016749445,0.030385181,0.03821955,-0.017693974,-0.014219205,-0.016227806,-0.0052248873,-0.0017437201,0.026682433,-0.00049175066,0.01852414,-0.038420636,0.008730806,0.025657719,-0.009020857,-0.026654117,0.0036067362,-0.009969605,-0.031812012,0.004452877,-0.021403575,0.0251708,-0.017453443,-0.015127867,0.021142744,-0.026947191,0.0005828573,-0.03061825,0.011149626,-0.020005709,0.024362491,0.036209457,-0.015543158,0.010024268,-0.014154202,0.007336597,-0.032853596,0.009019831,-0.050938103,-0.0046731047,-0.02656617,0.079019815,0.014372016,0.013493745,0.008423725,0.011851679,-0.038436178,0.023699487,0.011384919,-0.0073704794,-0.042665195,0.013180506,-0.011572373,-0.048240233,-0.00899606,-0.007468105,0.004075293,-0.044686653,0.0149572,-0.020485647,-0.02998918,0.011443208,-0.057794515,0.012580677,-0.018179208,0.025670148,0.011947211,0.010466763,-0.021765335,-0.023564266,-0.004594551,0.020933729,0.022396514,-0.032583814,0.0004278408,0.041486803,-0.01608893,-0.007834296,-0.009325059,0.011324088,0.0051295655,-0.023176484,-0.009010317,-0.007967384,0.0016272233,0.010635634,0.0031811476,0.000992215,0.0594046,0.020901633,-0.013080783,0.0038026767,0.012319476,-0.024388835,-0.024066944,-0.009055709,0.00019328692,-0.0017369445,-0.012535253,0.010309776,-0.025858954,0.011115049,-0.007682921,0.0071340087,0.022019647,-0.024535209,0.119570486,0.010654739,-0.011147362,0.03640972,-0.039685927,-0.0034967493,-0.016264213,0.02535817,0.015763791,-0.032608535,0.0036690424,0.038389433,-0.00032427974,-0.024597883,0.0075342446,0.039603934,-0.033710692,-0.040941324,-0.0054972237,-0.028049149,-0.00044791712,0.0033419128,-0.0009585403,0.020892028,-0.036076736,-0.021692967,-0.0011087296,0.013693334,0.018121071,0.0013536224,0.013934261,0.017821763,0.03907129,-0.022842111,-0.00022506743,-0.027502108,0.020971501,0.06363814,0.01731277,0.04562339,-0.0047469656,0.015146223,0.0053829444,-0.028326005,-0.017094245,-0.00064378284,0.009505314,-0.06420051,-0.0019341072,-0.019514905,-0.034067567,-0.031743363,0.0048533203,0.004945193,-0.031074528,0.022935456,-0.0009062918,0.019104227,0.009622877,-0.015864136,0.037836764,-0.03728158,0.049939513,-0.038438294,0.0061021545,0.03465757,0.00668072,0.053047743,0.004122166,-0.033210587,0.0018723997,-0.07082492,-0.03254173,-0.0050948584,-0.023683654,-0.0328115,-0.030669395,0.00445615,-0.016656416,0.008943741,0.0096594775,-0.05492558,-0.02504935,0.00110192,0.051308595,0.008167461,-0.017816423,-0.028769411,0.0382403,-0.015295917,0.012755015,0.010067361,-0.0156332,-0.005981361,0.009812299,0.0013649155,0.00094201387,-0.023741826,-0.017560499,-0.034962203,0.016265409,-0.009613635,-0.017619945,-0.0033746634,0.025397088,0.00060939556,0.0014402772,-0.027954012,-0.039892383,-0.04720367,-0.001926487,-0.014702434,-0.031584077,0.0012011378,0.0027886394,-0.046095587,0.0126709035,0.016757619,0.062303822,0.0074760984,0.004301613,0.060784347,0.04002225,0.01895984,-0.0011042332,-0.029638771,-0.004835982,-0.013157801,0.007907013,-0.03370083,-0.02079944,-0.0066786576,-0.010801524,-0.0062759425,0.016421588,0.042548284,0.018186837,0.015121204,0.017948195,-0.010668317,-0.018126613,0.055433195,-0.007774536,-0.04139696,-0.03904444,0.021566933,0.047031324,-0.014905545,0.007585388,-0.007894355,-0.0041926894,-0.019549232,-0.048068065,-0.009952029,0.022373633,0.00143591,0.008226296,0.02274157,-0.072337694,-0.06900536,-0.014251257,-0.005710268,0.009483279,-0.001968715,0.016874706,-0.017699365,-0.025796374,-0.010137969,-0.4386448,-0.005181699,-0.0030257993,0.02421932,-0.011180187,-0.03657226,-0.04515093,0.039708734,-0.006485643,0.0689828,0.0077385292,0.052667364,-0.027752742,-0.022443525,-0.007492276,-0.00026431994,0.03746416,-0.029014487,0.0057932124,-0.04942757,0.03786593,-0.044896256,0.018897904,0.002501972,-0.014367079,0.011698289,-0.028405963,0.060534827,-0.017451167,0.01970788,0.026456932,0.017381977,-0.058176965,-0.016892344,0.009024719,0.027817743,-0.04037823,0.060046725,-0.0024779672,-0.032330606,0.024131386,-0.00201452,0.0011432192,-0.008750098,-0.008528194,-0.0197615,0.002347669,-0.0012221386,0.04865421,0.034258842,0.021301588,-0.011699246,-0.0074495953,-0.011891766,0.038070206,0.023329865,0.02394286,0.029134732,0.020072937,0.04125147,-0.0073090354,-0.02348876,0.0047485214,0.009362399,-0.02711431,-0.031966537,-0.023084745,-0.04469827,0.028785465,-0.0155627495,-0.010943764,0.017158903,-0.016359163,0.015361877,0.001597274,-0.040126964,-0.023560595,-0.018123413,0.007611346,-0.05728708,0.026098067,-0.0031566727,-0.007304727,-0.012577972,-0.014315389,0.009849759,-0.0001935105,-0.0039009426,0.020132529,0.017935025,-0.005536838,0.005631535,0.03386831,-0.035860762,0.01626859,0.027864415,0.019110825,-0.00737479,-0.016647778,0.062253576,0.020293359,-0.0059067025,-0.029137693,0.022248806,0.03277555,-0.0025298824,0.000807118,0.0046809954,-0.049105443,-0.02055634,-0.0062937923,-0.00966011,-0.0065706116,-0.013171997,-0.009682127,-0.08093281,-0.03545275,-0.003961116,-0.019783322,-0.011283196,-0.03252113,-0.016021172,0.03513718,0.0014368715,-0.0059087174,0.013448726,-0.025978398,0.02763185,-0.018148512,-0.039804026,0.047715057,0.006381414,-0.011722186,-0.048098862,0.0076945703,0.043727305,-0.039492946,0.027170926,0.0062549827,-0.0035909808,0.03231524,-0.024019644,-0.046481974,-0.053477418,0.02748225,0.022497082,0.00027879278,0.03386166,-0.011044554,-0.040581733,0.048753645,-0.050697554,-0.014191524,0.025910048,0.015933245,0.007111777,-0.026464216,0.0591334,0.026076337,0.028844116,0.015328884,-0.027876673,0.014878078,-0.0016220504,-0.0017165026,0.050979972,-0.028961562,0.049116068,0.00954781,-0.007593716,0.032226235,-0.016039822,0.024120206,-0.010628179,0.036950544,0.10079702,-0.031254686,-0.033579085,-0.012881749,-0.03380255,-0.040466763,-0.015402339,-0.003498952,-0.0077948505,-0.024689956,-0.028575841,0.009082377,-0.006004219,-0.03150019,-0.0148744155,0.053184744,0.037224524,0.019191748,0.013611864,-0.011481661,-0.017795842,-0.020178974,0.002086359,-0.014481898,0.0073779244,0.036660463,0.006964148,-0.022761177,-0.009815152,-0.02784445,0.023023212,0.034706756,0.024901401,0.007815842,0.05086017,0.010767558,-0.0095242895,-0.06073697,-0.03431213,0.023755016,0.012769709,0.0003485717,-0.016238118,-0.022761624,0.023823358,0.019250497,0.066445135,-0.10739723,0.03293335,0.012426954,0.006967654,0.0391597,0.0067011677,-0.05520798,0.0050632646,-0.04073227,0.4712963,0.010040413,0.017100163,-0.009257624,0.05499884,-0.018869638,0.02261174,0.049300227,-0.0026760797,-0.055127375,0.01085476,0.032832645,0.0040046456,-0.033873096,-0.04276658,0.08004778,0.02516462,0.027618645,0.01709634,-0.013969633,0.004482574,0.000704184,-0.0093900375,-0.024063505,-0.02117485,0.06512789,-0.050865144,-0.02622463,-0.04393149,0.010815517,-0.002082959,-0.046344787,0.024393816,0.023495648,-0.024569219,0.0047235438,0.0062613804,-0.0003226054,-0.021089058,0.013509591,-0.0030258624,0.05337784,0.029379893,-0.017978776,-0.006867025,0.032774966,-0.0036610893,-0.017015439,0.046787012,0.024424257,-0.05472691,0.0005562354,0.0065645394,-0.026136043,0.01820625,-0.0074716713,0.02612239,-0.05199963,0.023093715,0.040891755,0.018517386,-0.015378076,-0.033726357,-0.009395917,-0.006509933,0.0015327218,-0.0064606895,0.019748043,-0.0072842417,0.08349145,0.008317536,-0.00669358,-0.0019242739,0.033798598,0.017873002,-0.020380137,0.021454284,0.028697249,0.05294042,0.014118309,-0.10285779,0.04125946,0.024900107,-0.008935666,0.0008082988,0.0011271391,0.031635422,-0.034482352,0.007866133,-0.02824487,-0.00020076265,0.0018965729,-0.03538352,0.018994475,-0.015831808,0.014529617,-0.0055301962,-0.0046777413,0.012733326,0.022226203,0.03989221,-0.02001282,-0.013829469,-0.008715509,-0.0035883368,-0.066782914,0.015473853,0.0070024994,-0.008386692,-0.011345281,0.043535084,-0.0959207,-0.010042548,0.0239492,-0.018221006,-0.02005804,-0.033694807,0.0072580082,-0.047399506,-0.023883158,0.041111078,-0.019397713,0.00676378,-0.014009076
TEST_005,0.022739075,0.006633158,-0.031758875,-0.00771465,-0.0013589015,0.02339808,0.022119334,0.013105041,0.02701179,-0.01826829,0.0015836061,-0.03900652,0.006423149,-0.0022612954,-0.012435851,-0.0072119106,0.001006395,0.010354877,0.023191974,-0.034804985,-0.0017406268,0.0010942632,0.004885478,0.003054731,-0.04869504,0.051097512,-0.013271821,-0.021250695,-0.015437356,-0.012448776,-0.01965121,0.0075879446,-0.0041400343,-0.0059832823,0.018349612,0.003156879,-0.01560103,-0.026085151,0.015233866,0.0010207818,0.019798502,0.025889253,-0.03459091,-0.00748548,0.0118931765,0.025400896,-0.013101936,-0.013198701,-0.04174566,-0.041111737,-0.0059664887,0.010833823,0.024687633,-0.005220415,-0.02977082,-0.0028647976,0.025660222,-0.004057374,-0.025996605,-0.011634681,0.026976813,-0.057325818,-0.027483478,0.03119745,0.030864619,0.0019338904,0.022499286,-0.013446263,0.025867907,0.028539492,0.007759075,0.03744457,-0.010917352,0.00695321,-0.0005783788,-0.006694896,-0.029919807,-0.013489409,0.016178224,-0.008357316,-0.013405746,0.0139099555,-0.034267202,0.021844339,0.001656959,-0.036855847,-0.0033758434,-0.006104102,-0.013551735,0.020383036,0.039547637,-0.011874208,0.018019792,0.019091966,-0.022159882,-0.007765849,0.009609964,0.007915092,-0.015466752,-0.033229336,-0.015003315,0.01422591,0.023707144,-0.020097353,0.0031034928,-0.05058248,0.017094377,-0.025178006,-0.022314293,0.0014703876,0.0034285341,0.0050639277,-0.03599073,0.012299508,-0.016044794,-0.038936924,-0.038346667,-0.006344111,-0.0785293,-0.022450922,-0.064293,-0.0021306572,0.0072797835,0.016878454,-0.016147366,-0.029761657,0.012032947,0.00456576,0.023254616,-0.011777919,-0.018035443,0.043630593,0.016669977,-0.05627706,0.03806428,-0.030671882,-0.0122624505,0.014386697,0.018798362,0.006135963,0.008736466,0.0046686917,-0.0017667668,0.013421548,-0.02841529,0.027659295,-0.005708897,0.063723214,0.002415345,0.018513085,-0.0024019603,-0.005815842,0.012477458,-0.0016126591,0.015943829,-0.011203339,-0.008528618,-0.004724193,0.009116479,0.019255145,-0.008403235,0.0014391852,0.009110408,0.020416649,-0.030630047,0.012161061,-0.032976296,-0.000735283,0.03119047,-0.011239787,-0.002741668,0.010805402,0.0065093576,-0.03394198,0.0034008806,-0.023160217,-0.017500132,0.02991914,0.034444995,-0.020084612,0.018544083,-0.024257453,0.0026282605,-0.0145916,-0.05037937,-0.023708316,0.0077260076,-0.0072341543,0.003923581,-0.0023284922,-0.010654731,-0.0138927,-0.022694102,-0.024496695,-0.0110874055,0.048527572,0.008854339,0.022616312,-0.031927824,-0.023344912,0.0045630056,-0.037301667,0.002994339,-0.009449503,0.009062256,-0.019321878,0.022972438,-0.0068000993,0.02347873,-0.019282715,-0.02486342,0.0003769669,0.033440404,-0.017046474,-0.010619823,-0.013836859,0.006585324,-0.032415796,-0.0015143205,-0.048105825,-0.0040281634,0.027295725,0.026576543,0.0335566,-0.0053489394,-0.007194554,0.022833338,0.02600091,0.004442859,-0.008539192,0.0067185224,-0.016247977,-0.0008338558,0.030708088,-0.047025394,-0.015154087,0.028065924,0.008714063,-0.023064276,-0.0056473697,-0.019626552,0.019289281,0.01000012,-0.014502033,-0.013395843,-0.01645233,-0.028149437,0.016833525,-0.026351353,0.020456757,0.012282328,0.02043941,0.015917458,-0.015400131,-0.039681252,-0.0040519587,0.041524637,-0.05049959,0.041660633,-0.06977546,-0.009827592,0.0038137634,-0.017571257,0.019689385,-0.014547446,0.009678418,0.028673204,-0.03809442,-0.033685528,-0.016653327,0.00034647292,0.016589262,0.005818708,-0.0130417105,0.019425051,0.009265607,-0.0011252215,0.00030552165,-0.034592755,-0.026947476,-0.054018643,-0.038726784,0.047816593,0.014645909,0.012471795,-0.012238614,0.005327543,-0.005492313,0.027547855,-0.0008503677,-0.031056104,0.002400433,-0.04256288,-0.038974743,-0.0047710077,-0.029128158,-0.02147189,-0.027001388,-0.023915801,0.017188042,-0.0046407566,0.0011705763,0.0051043076,0.0019306085,0.02469528,0.0023374467,-0.019723073,0.0050679836,0.02860247,-0.017827166,0.03692974,-0.003390707,0.013574128,-0.0022490777,0.0045323013,-0.007874599,-0.07982035,-0.016673418,-0.012294937,-0.021543086,-0.02741402,-0.037456125,0.008475374,0.0044647413,0.0051948153,0.022209229,-0.055519395,-0.040425334,-0.0032428466,0.020369291,-0.048005905,0.022891458,0.015488184,0.0025349741,-0.0065486943,0.018528843,0.006132273,0.023747912,0.0035246792,0.016308514,0.044261057,0.022611506,-0.00732802,0.019027028,-0.020985536,-0.02009123,0.013842578,0.04061937,0.023427553,-0.0049625267,0.006548787,-0.006056421,-0.0029369423,0.0076448894,-0.0029179147,0.012005687,-0.00428069,-0.0036002465,0.030845338,-0.0013075945,0.008868164,0.008056399,-0.025001243,0.00242157,0.01282875,0.021740247,0.021335047,-0.009240999,0.028276108,0.020914564,0.04038867,-0.03731052,-0.00030444434,0.03549321,-0.00070134585,-0.022841658,0.023702653,-0.02784616,-0.013470748,-0.009801207,0.018992642,0.04164543,0.009198913,-0.014535744,-0.022089485,-0.058398765,0.01896345,-0.002820654,-0.017341558,0.019994833,0.0071190284,0.005445358,-0.012622047,0.016802112,0.0023769937,0.036962643,-0.03454164,-0.050221335,0.0035536035,-0.018472213,0.041088432,0.012636069,0.010808691,-0.028069021,-0.06857878,-0.0456516,0.0001117325,0.01701501,0.0321387,0.0055888086,0.011863124,-0.028084755,-0.022832036,-0.47241205,0.0054613557,-0.015211981,0.02277424,-0.0071441215,0.0134868,-0.019114982,0.039409433,0.020011008,-0.016520333,0.0012293692,0.016452942,-0.027905487,-0.01701006,-0.0051475093,0.01453817,0.01910905,0.0033966994,0.036381256,-0.03760144,-0.010591054,0.0017949016,0.028046716,-0.0074962093,0.0025986277,-0.0069117895,0.013967872,0.07048072,0.010324353,0.02966558,-0.004157137,-0.01293143,-0.0026708285,-0.006631738,0.051123597,-0.006555279,-0.015055641,0.025628995,-0.020241855,-0.02791963,0.03188538,-0.0001617657,-0.04583244,-0.02810773,-0.02027023,-0.045551453,-0.004421881,0.021486985,-0.01103633,0.016575735,0.046381272,-0.0038141478,-0.00097502995,-0.057316296,0.1722688,0.02961315,0.04362202,0.0320604,0.012862967,-0.025319148,0.0031079494,0.005491899,0.0061140535,-0.0124429045,-0.030744243,-0.01944305,-0.0005350127,-0.0055900174,0.015562361,-0.01818568,-0.024559347,0.042648185,0.0070223524,-0.0183293,0.0065672556,-0.0114650875,-0.02534648,0.015013728,-0.017741067,-0.036816742,0.020017022,0.016599767,0.0077063716,-0.01654287,0.011974633,-0.028483616,0.028975574,0.005720557,-0.039697792,0.0041545024,-0.011297849,-0.004060591,-0.005417599,0.0037780865,-0.0013886591,-0.013767051,0.018455254,-0.012760265,-0.025563015,0.04413456,-0.0279295,0.027916985,-0.01394331,0.008062075,-0.017971626,-0.0021559864,-0.03533975,-0.011057658,0.008458507,-0.010290894,0.04798998,-0.008430237,0.05375946,-0.0023571125,-0.044271763,-0.11838536,0.006136396,-0.009182882,0.06304045,0.011873268,0.027163237,0.017186584,-0.018869797,0.013552144,-0.008931008,0.019138156,0.0007381671,-0.00987434,-0.016571298,0.03151101,0.021888463,-0.0108171785,-0.013249792,-0.0063884603,-0.03543709,0.034169458,-0.008479803,-0.049278412,0.039594546,-0.027462313,0.017913735,0.04056622,-0.03441495,-0.04757211,-0.007214584,-0.00835995,-0.013362398,0.038306247,-0.03457244,0.0047690836,-0.005095839,-0.07351476,-0.003436422,0.011416934,-0.02660332,0.004855215,0.026892027,-0.01762654,0.0102582015,0.006946718,0.027431717,-0.0028756852,0.0081177475,0.01580573,0.023442803,-0.013214105,0.021609781,-0.01995389,-0.029740233,0.006580792,-0.00084207975,-0.016089795,0.019227436,0.0224431,0.012882938,-0.029560203,0.0009882718,-0.028999802,0.010603677,-0.004700823,0.02848671,-0.0092094485,-0.01062007,-0.011254959,-0.04019924,-0.010367576,-0.046453744,0.01569831,0.009491185,0.038803823,0.004251673,0.03488845,0.00813545,-0.004613958,0.016049232,-0.040159196,-0.026444603,0.0061572012,-0.0071630445,-0.012767102,0.027585598,-0.008783538,0.024846062,-0.022181686,-0.057926808,0.045037635,0.018339433,-0.00812783,0.036503077,0.0063680937,0.026953964,-0.012045781,-0.03936042,-0.014676359,0.012939159,0.008859297,-0.00112953,-0.02098929,0.018779017,-0.034316786,0.0194657,0.03659372,-0.00021491252,0.0034317686,-0.0244462,0.035061013,-0.029287303,-0.016525147,0.018697293,0.037544787,0.015371532,0.50475234,-0.0042678625,0.008810529,-0.012447872,0.035491884,-0.033807993,-0.026665635,-0.040137503,0.019700957,0.010035094,0.0026707754,0.004654406,0.014441871,-0.02123344,0.011833868,0.094809994,-0.016711207,-0.0123596415,0.02222205,0.008335359,-0.010553765,0.00090622494,0.02375828,-0.017486298,-0.027385892,0.08186693,-0.008598705,0.0030131363,0.0024885347,-0.021513611,0.021946423,-0.022492277,0.034630552,0.02019949,-0.033448234,-0.044357907,-0.00040967955,0.017052628,-0.008803783,-0.019624542,-0.05239979,0.055517264,0.002014212,-0.012717309,-0.023420282,0.007493868,0.047288842,-0.041744392,0.18455705,0.018825242,-0.028697843,0.027450489,0.012589827,0.007812779,0.025986968,0.0014256038,0.007909663,0.018552046,-0.02338233,0.056313053,-9.54765e-06,0.023801398,-0.03142428,0.010508395,0.016027886,-0.012430901,0.0024090924,-0.011986764,-0.039052647,0.036211517,0.04122297,0.022433158,0.021468103,0.01887872,-0.015336431,-0.02340808,-0.040270254,0.016298078,-0.006091332,-0.018955547,-0.024201097,0.016392784,0.02762306,0.008357606,0.0012807292,0.010034125,0.003180724,-0.013616754,-0.0009706091,0.033701256,-0.008559232,-0.036725406,-0.001202096,-0.011729422,-0.033314895,0.0040305466,0.0333778,-0.017742071,0.008974344,-0.023360694,-0.01536606,-0.042128146,0.009492922,-0.013689773,-0.0512405,-0.029688345,0.020229597,0.019430412,-0.01933385,-0.0029720138,0.036398374,0.0003428735,0.009853973,0.03543896,0.008584502,-0.0028216504,-0.0076883375,-0.00025232765,-0.042463664,0.029777806,0.0032042528,-0.0018468772,0.015466089,0.0038197148
TEST_006,-0.003074731,-0.026891898,-0.013948807,-0.015478627,0.02392692,0.00055759726,-0.01389034,-0.018558277,0.020165473,-0.035257183,0.005589926,-0.02985342,-0.008150343,-0.034584556,0.042303838,-0.038903985,-0.068072826,-0.013966153,-0.016806202,0.01467511,0.024818396,0.012779896,0.03930205,0.02354002,0.0347349,-0.0112582985,-0.025557557,-0.018534062,0.0071199234,0.027473262,-0.01456041,-0.013731179,-0.03189009,-0.0118819615,-0.020063259,0.0022813734,-0.005869013,0.018577846,0.0054107695,0.02440841,0.040429723,0.023102162,-0.010487711,0.0133022405,0.029988833,-0.008947723,0.010507041,0.0041607567,-0.015052256,-0.053134274,-0.07278206,0.0005290708,0.03742561,0.006267575,-0.02375433,-0.004087082,0.03568874,-0.04039053,-0.016939212,-0.041642386,-0.02706372,-0.019321226,-0.0020191602,0.003908749,0.020541936,0.023692762,-0.0045578773,0.012040238,-0.009012372,-0.025644088,-0.009630571,-0.026313173,-0.0015062384,0.011647114,0.06573554,-0.020124884,-0.039185338,-0.00564152,-0.014514371,0.00031224094,0.020128885,-0.0018853868,-0.056614324,0.017854393,0.0061070947,-0.023140712,0.04426107,0.0025640603,0.00031634734,0.031821307,0.015891805,0.00094102294,-0.024019388,-0.018066553,-0.0009979828,0.019265695,0.007819069,-0.007607334,0.02211374,0.018024113,-0.021088181,-0.031183418,0.014297227,-0.041553907,-0.01539485,-8.73125e-05,-0.023566337,0.005479754,0.010646623,-0.003337118,-0.023786534,0.018462019,0.015168807,-0.0034943093,0.003243277,-0.019439097,-0.033364,0.013748342,-0.08282243,-0.0031402863,-0.05044708,0.018940963,0.034722246,0.005618598,-0.007444078,0.030959174,-0.010329111,0.010412872,-0.013451503,0.0025811887,0.015751977,0.04678446,0.049177554,0.07088841,0.0014080666,-0.025985328,-0.00043903693,0.015812539,0.024353296,-0.028285446,0.027117128,0.013937635,0.02056941,-0.00301648,0.00019749136,0.015121086,0.041364748,0.03777903,-0.022485957,0.023890782,-0.020068416,0.0040870435,-0.0052971193,-0.0026517457,-0.0092257,0.03893991,-0.0022492015,-0.020095652,-0.021147499,-0.02421257,0.010311098,0.001827381,-0.017580118,-0.014352454,0.006098741,-0.020381361,0.012577886,0.020442216,0.007928052,-0.008342463,0.013810728,-0.0066107996,0.0068770214,0.0001761483,-0.002627034,-0.016964596,-0.03546236,-0.055084355,0.068885475,0.00048462287,0.14860249,-0.045869175,0.02334955,0.022021033,0.029358653,-0.005224054,-0.0007305954,-0.020787487,0.009051007,-0.053538393,-0.002481474,-0.016641224,-0.0010013551,0.0458287,-0.01815341,0.01574596,-0.0050375466,0.061744783,-0.02360299,-0.017118897,-0.017243482,-0.04971337,-0.010163426,0.0053142114,-0.027232995,0.017810816,-0.0074281506,-0.028854493,-0.006709647,-0.030788342,-0.04706118,0.0030726634,0.004784654,-0.016686074,0.05724412,-0.024686947,0.023369484,-0.014450235,0.057495482,-0.009217153,-0.029959396,-0.027214777,-0.0010091796,0.0075329,0.029075978,-0.032692604,0.011558917,0.057101622,0.0198203,0.016163543,-0.029486116,0.03440959,0.057541125,0.025359793,-0.046581417,-0.029145809,-0.030089816,0.03916549,0.0029175435,0.003032861,0.0049673314,-0.016937116,-0.00527555,0.020776674,-0.015494206,0.10645895,0.009316187,0.032908943,0.008067463,-0.03749627,0.018101247,-0.016799672,-0.023860894,-0.029569553,-0.024171604,-0.004173893,0.048877455,-0.016192365,0.008377303,-0.05301501,-0.033344995,-0.023508849,-0.028931338,-0.002585185,-0.010384548,0.031060314,-0.033691723,-0.0050325817,-0.0049878624,-0.043812677,-0.03194882,-0.032451976,0.008494523,0.0037363593,0.007998212,0.030598497,0.03636498,0.027011415,-0.013858346,0.0066878195,0.009539023,-0.06872952,-0.0031408977,-0.026260441,0.015328696,-0.027427841,0.029675912,0.013105367,0.0009055363,0.011537569,0.02533345,-0.032966074,-0.019174002,0.025015544,-0.030296793,-0.018394496,-0.005311589,-0.034926027,0.018564953,-0.005633663,-0.0065387203,-0.01768847,-0.0034941689,0.02801532,0.009276172,0.013064459,0.01870387,0.04951811,-0.021581708,0.006012792,0.05578999,-0.010402054,0.0083122095,0.0019308573,0.009818539,-0.02363676,-0.068841,-0.044095095,-0.025695281,-0.018178264,-0.034137744,-0.01689055,-0.010525218,-0.0066099996,0.010204515,0.034994915,-0.08808858,0.011701424,0.043124363,0.045572605,-0.0015317694,-0.012099063,-0.005535702,-0.019077145,0.008088082,0.010633164,-0.010045843,-0.028749427,-0.009313665,0.046037514,-0.009354333,0.017464753,-0.010326325,0.0017056074,0.006776262,0.017772816,-0.0007303687,0.009663543,-0.0046445234,0.0010273576,0.028195674,-0.004043268,0.010546618,-0.004689406,-0.00028253457,0.019991053,-0.00020666877,0.05596127,-0.01641587,0.01161249,0.012041506,-0.04706028,0.009081172,0.04858489,0.02368181,0.027415572,-0.02213374,-0.03915321,0.00936758,-0.028552037,-0.022073047,0.018006684,0.005171382,-0.002827525,-0.0005971285,-0.0345739,0.025618576,-0.075781256,-0.002309455,0.001130754,-0.04381817,0.010067317,-0.019038705,-0.0024663648,-0.0076847505,0.021692669,0.0027635782,-0.017159794,-0.05609508,0.044607516,0.021440132,-0.0048031625,0.016194006,0.010611273,-0.008522639,-0.009681164,-0.018163346,-0.039062105,0.017246826,-0.0249529,-0.021083882,0.016398482,0.009934294,-0.02427067,-0.041241884,-0.007977359,-0.011620759,0.0069893952,-0.040435378,0.04309837,-0.009595359,0.0118672075,0.024055818,-0.4171635,0.021539686,-0.03444657,0.0029855454,-0.010675871,0.033535503,-0.03631005,0.07060379,-0.0025978044,-0.02560765,0.052564315,0.0058799824,-0.011891839,-0.03651525,0.005160238,0.018426854,0.010358666,-0.013779713,0.013335873,0.0031787064,0.020941976,-0.001346708,0.025944084,-0.02121946,0.0139919855,-0.003410572,-0.02210433,0.05566165,-0.02124775,-0.022566926,-0.031048061,-0.034613777,-0.008121063,-0.03650992,-0.0039451844,-0.015429519,0.0015636375,-0.0012779351,0.00075973803,0.018611848,-0.030141352,0.028309882,0.0077566355,-0.02020769,-0.0011462284,0.023876298,-0.001641476,0.004261995,-0.0065862034,0.027549429,-0.15571053,-0.05406095,0.051198382,-0.004436743,0.13079685,0.010994952,0.009317731,-0.00015978323,-0.0014266878,0.012333643,-0.0043867296,-0.005379471,-0.006695913,-0.010834385,-0.066961735,0.009154433,0.036194008,-0.02694598,-0.005177079,0.025014939,-0.038153198,-0.020480772,-0.025806801,0.0056724166,-0.047685213,-0.0018033123,-0.04316142,0.027751692,-0.0115022175,-0.11270486,-0.007038803,-0.020300634,0.008947298,-0.0347418,-0.028168062,0.02033111,-0.002280048,0.009996785,0.009239847,-0.0095913075,-0.013030045,0.06625519,-0.0022476453,-0.021916488,0.00036295544,-0.012769224,0.034076434,0.012358233,-0.04084626,0.011609659,0.045910805,0.022010911,0.0058023077,0.040325075,-0.025793266,-0.009083683,0.01828025,-0.002714161,0.0031369082,0.014053502,0.014717506,0.024302553,-0.012051331,0.010681809,0.023240939,0.030076228,-0.010735064,-0.029590154,-0.007872075,0.017128054,-0.01461671,0.0038597758,0.010152693,-0.013752446,-0.024874203,0.04226907,-0.0032765104,-0.006720525,-0.0044958675,0.036841135,-0.017646113,-0.042243242,0.033778396,-0.039864354,-0.015936753,0.018600889,-0.014511289,-0.037534658,0.033867586,-0.030647272,0.027910545,-0.002803134,0.0128897615,0.003160085,-0.024038367,-0.0051519326,0.015441685,0.0024301836,-0.024418974,0.027772816,0.01531793,0.05334811,-0.012951221,0.0045113987,-0.0127832,-0.022573758,0.0036719907,-0.010714486,-0.003944566,-0.035069026,-0.033746082,-0.009811858,-0.016485061,0.016552223,0.005776958,0.021741346,-0.007979119,0.02926374,0.032901213,0.006972502,0.00047437593,-0.0037826595,0.0029678284,-0.02436253,0.025231985,0.08823163,-0.012252643,-0.05130772,-0.024081312,0.005890056,-0.003397476,0.04304694,0.004251939,-0.02327154,0.00042173892,0.0049697105,0.0018113923,0.010804854,0.01536832,-0.04419601,0.030300887,0.0032659275,-0.0002955143,-0.0047975313,0.0016966051,0.00538099,-0.00028031963,0.0036301566,0.017086813,0.0059935385,0.044303596,0.030924298,0.058384735,0.052643817,-0.053086407,0.01212736,0.00024128801,-0.01526154,0.018900242,0.030714307,0.016381282,-0.028324608,-0.08208791,-0.019519381,-0.00690427,-0.0018503036,0.02557038,-0.012991525,0.033838227,-0.021070814,0.016378775,-0.01784312,-0.12665026,0.019694194,0.02025746,-0.012511462,-0.008337976,0.0054307533,-0.010949903,-0.035148613,0.0010565092,0.4504667,0.009390617,0.0043217666,-0.007219564,0.0214113,-0.00015116236,-0.002778214,0.023876783,-0.033322014,-0.05000587,0.025645297,0.05906406,-0.022407144,-5.0332193e-05,-0.01398572,0.038362056,0.0090687,-0.02400209,0.03875985,0.023056312,0.024197532,0.013626707,-0.0356321,0.023027211,-0.034593698,0.04430515,-0.017180253,0.00052697235,-0.0022998024,0.029994855,0.03000238,-0.020188836,0.022165332,0.0075620716,-0.005422278,0.016225006,-0.0076900856,0.03612372,-0.00859256,-0.021201987,0.008844921,-0.006021193,0.040241756,-0.011121411,0.00074669404,0.0094510205,-0.01650992,0.036181256,0.07479049,-0.019074414,-0.045233168,0.010149705,0.036546532,-0.020910792,-0.014206014,0.01739666,0.020506797,-0.002522384,-0.012605509,0.028335609,-0.0052907392,0.02563295,0.011258437,-0.026110401,0.003248605,-0.010590742,-0.0077600083,-0.0502886,-0.04735416,0.03250484,-0.030130813,0.001958674,0.017310962,0.0013689954,-0.0019809615,0.017940542,-0.010057599,-0.011781149,0.005732274,0.094251335,-0.051050093,0.085615195,-0.0024679732,-0.02099067,0.01587891,0.00062531757,-0.010741562,-0.0037927476,-0.01811313,0.029977212,-0.024704369,0.0047107735,-0.0109387655,-0.006185445,-0.02450276,0.032550514,0.040142484,0.057915695,-0.0076315356,-0.021631408,0.02426477,-0.011502912,0.017006436,0.02054134,0.020577531,-0.03288537,0.022602279,0.012939943,0.0015101659,0.022939354,0.004179136,-0.02840418,-0.012433732,0.0011122144,-0.037023574,0.04483222,-0.061610125,-0.020874042,-0.03987181,0.009525776,-0.023613576,-0.015276787,0.0253209,-0.0308391
TEST_007,0.04478955,0.049188115,0.0178986,0.05070743,0.004068161,0.0023319465,-0.0044289026,0.02551598,-0.020211952,0.05217881,0.044310596,0.0032908819,0.010032636,-0.01827604,0.03431751,0.03033691,-0.03430621,-0.0015665757,0.047906175,0.008236616,0.035735954,-0.027472163,0.027297225,-0.015141928,-0.03043458,-0.03658975,0.008437385,0.012829791,0.029173948,0.024306633,-0.008446822,-0.0048801927,-0.021864435,-0.030106936,0.023720954,0.011392667,-0.0388445,0.028830515,-0.007344854,0.009670923,0.036685683,-0.011207061,-0.028210515,-0.022213299,0.050546553,0.012486849,-0.02772645,0.009551963,-0.004187424,-0.016851872,-0.021153815,0.0107639,0.033366136,-0.034642387,0.018311594,0.020802287,-0.0037511757,-0.054465313,-0.03345717,-0.015155694,-0.038024027,-0.018972294,0.006983492,0.0017108662,-0.0009506125,0.008791123,0.006248664,-0.0016256509,-0.011227933,-0.022929516,-0.019162353,-0.04947195,0.034182206,0.006641567,-0.004687915,0.033275425,-0.012029614,-0.0024127478,-0.03147811,0.0076087527,-0.017901314,0.015300339,-0.056162793,0.033210084,-0.07488484,-0.0066550905,0.00732314,0.027857214,0.0056368266,0.031286873,0.017925238,0.031918824,-0.009900877,-0.021054037,-0.046244554,0.02643707,0.058682855,-0.029830666,0.0028438128,0.031708643,0.005728707,-0.007841492,0.013492311,0.01581642,0.045374732,-0.04135819,0.015387187,-0.01088996,-0.027080579,-0.01631924,0.046513516,-0.019562224,-0.010783188,-0.028900243,-0.009393328,0.0043031317,0.011588506,-0.026868343,-0.054445677,-0.008595281,-0.0008799136,0.032207694,0.01324028,0.00577623,0.029514877,0.001341454,0.0017290392,0.0013104158,-0.05093915,0.0097692935,-0.025592405,0.118997805,-0.0050812582,0.025805924,0.0049434854,-0.06863763,-0.014254685,0.008901114,0.027318517,-0.0053025065,0.014148877,-0.010921305,-0.046292733,-0.036700208,-0.02155635,-0.011022357,0.011526646,0.04341557,-0.020788439,0.007726273,-0.02328301,0.0074415253,0.019222269,-0.004206541,-0.009998838,0.01769695,0.012337247,-0.028877895,0.013720213,0.0154196685,0.021915095,0.017476043,0.0028441956,0.016757045,0.01096915,-0.0014719411,-0.003109171,-0.0042793592,0.009221747,0.006631598,0.010474122,-0.019766603,-0.031213045,-0.007318651,-0.015300738,-0.022928212,0.00039363923,0.0017490671,-0.07907574,0.0008454192,-0.0010297621,-0.011041862,0.038050823,0.0030881735,0.016722538,0.007702039,0.033747863,-0.028069166,-0.00085281866,-0.0061965743,0.0014756816,-0.031023018,-0.04742088,0.016354237,0.027100295,-0.022871671,-0.010728521,0.010602649,-0.029357148,0.0032334637,-0.034121335,0.01243041,-0.011751997,-0.013505915,0.013919511,-0.029900085,-0.05301211,-0.022243813,0.019720392,-0.022239741,0.010822501,0.024030084,-0.00085488963,-0.014770004,-0.0048728604,0.021790212,-0.04074465,-0.012202414,-0.0072881086,0.001298296,-0.012705326,-0.036779467,-0.0064124465,-0.028428448,0.008388962,-0.007816981,0.020133909,-0.0023819455,0.011569798,0.038116653,0.015023808,0.012998329,0.04984258,0.055911064,-0.012299096,-0.0002646194,0.00016113094,0.009562557,0.00038132584,-0.013681596,-0.024812963,-0.019349081,0.010036143,-0.0014346743,-0.029777251,0.0005583723,0.007521179,0.008544158,-0.0063457415,-0.009471323,0.011163618,-0.017168097,-0.018189497,-0.027795395,-0.008401832,-0.02884322,0.020990174,-0.024865942,-0.003494226,0.061219066,-0.025201786,0.018774107,-0.012526063,-0.011737514,-0.06918727,-0.030948402,0.01748455,0.008679193,0.0038535735,-0.003944625,0.002273205,-0.0055280603,0.0013678027,-0.011665517,-0.029842159,0.027686683,0.0034076888,0.04033812,-0.019279854,-0.013408405,-0.02795483,-0.038317047,0.0064289025,-0.035574853,0.020830126,0.007337856,0.010710197,-0.000179932,-0.04284858,-0.008868077,-0.03569274,-0.012705824,-0.03484603,-0.010629442,-0.053903274,-0.016560363,-0.01343593,0.023239395,0.0027386087,-0.005949265,-0.026969055,-0.008268241,0.019326588,-0.029669024,-0.05017177,0.021751763,0.023086222,0.007401603,-0.0013959648,0.03238025,0.016310304,-0.0048086117,-0.0033143477,0.012618983,0.01147582,-0.012769158,-0.048160315,-0.012081748,-0.024496892,-0.043591235,-0.012601109,-0.0031561495,-0.010574433,0.012328199,-0.011946274,-0.0025071083,-0.05031963,0.0025070733,0.06728088,-0.092278965,-0.008121182,-0.01933879,0.0036290202,-0.00036523538,-0.037398238,0.0006296495,0.0032146843,-0.025696332,-0.02339497,-0.02488741,-0.018682746,-0.026297387,0.0375221,-0.015216315,-0.0036025555,0.0074695847,-0.027962027,-0.047459546,-0.035926495,0.022926398,0.044014517,0.029185856,-0.021437125,0.04417829,0.0015280267,0.0044096936,-0.0133308135,-0.011132821,0.0144319935,-0.0054561994,0.00017825852,-0.051190834,-0.027019612,-0.0009995715,0.04279819,0.032736737,0.034140844,0.024284074,0.0216699,0.009013479,-0.007250418,-0.0056583905,0.004321295,0.007106598,0.03301715,-0.038119126,0.00038160174,0.0019682602,-0.02440518,0.017821575,0.06467795,0.004019571,0.029299777,0.04375284,-0.016769204,0.011380544,-0.015415244,-0.037687343,0.012785785,-0.013807306,0.039368365,0.023428377,-0.011996284,0.038171288,-0.02806822,-0.0052338117,-0.02546247,-0.033472795,0.017094413,0.0037776195,-0.028999811,-0.005730563,-0.008973185,-0.0034474793,0.047208626,-0.033275306,0.01447821,0.027952028,-0.0038189385,-0.011254622,-0.039380815,-0.018999854,-0.022909699,-0.40125388,0.015061454,0.017526727,0.010573885,0.026848977,0.008223904,-0.005098573,0.08078678,0.047110837,-0.021433437,0.0051817386,0.042878345,-0.022468353,0.00553542,0.01137357,0.02847893,-3.834383e-05,0.013015196,-0.009535867,0.016937254,0.033274945,0.013306671,0.059447918,-0.022705633,0.005071118,0.040142458,-0.010526595,0.03830391,-0.023912946,-0.0009097145,-0.0035688065,-0.019138841,0.020237248,-0.00607177,0.009662682,-0.00068821525,-0.034746625,-0.0040738136,-0.027971232,-0.033599637,-0.015107586,0.018841885,-0.015823508,0.002980158,0.035887837,0.0036043285,-0.0016057293,0.0417548,0.037513793,0.027070284,-0.22022608,-0.08246694,0.016453557,-0.0017901218,0.0707315,0.007843964,0.0052847574,-0.004296271,0.0040816055,-0.0007737584,-0.006048904,-0.015102633,-0.009954077,-0.004183573,0.05105069,-0.026550949,-0.00949999,-0.019846296,-0.033092596,0.008777124,-0.0612621,-0.039903082,-0.0028803,-0.037822265,0.018725459,-0.022640415,0.023415808,0.0147875855,-0.0074976142,-0.031251416,0.005495267,0.012711203,-0.028996736,0.008840799,0.007605799,-0.0018019386,0.015892068,0.002291197,-0.011390297,-0.027737686,0.0023331274,0.023583237,0.0023709002,-0.023296129,0.008994682,0.023411227,0.013837725,0.05109064,-0.00093751086,0.020977028,-0.0036738093,0.01071574,-0.012610784,0.015245072,0.04791713,0.0052728006,0.06917595,-0.019869795,-0.04798539,0.004037765,-0.012338923,0.019115476,-0.01606922,-0.039730232,0.018188015,-0.08473596,-0.042733286,-0.027939776,0.0028517763,-0.00039920383,-0.009942351,-0.027301216,0.029007807,-0.008767895,0.011559818,0.013703113,-0.056112234,-0.0036841873,-0.032765426,-0.04203791,0.002403678,-0.023144394,0.011269315,-0.05297137,-0.023239832,-0.03450345,-0.01495012,0.05755956,0.016914675,-0.016283777,0.010927979,0.004221243,0.0028729502,-0.0370702,-0.0668626,-0.013274937,0.009235023,0.090665095,-0.018311698,0.013920257,0.032492638,-0.032787036,-0.0033090578,0.048600275,0.011097867,-0.013458191,-0.002526797,0.0052801035,-0.00067446125,-0.028800663,0.026242774,-0.025910266,0.031954497,0.018940851,-0.011411968,-0.0323806,-0.015551683,0.02037299,-0.003273877,0.0055411076,0.00716913,0.0031315412,-0.00012481898,0.02601784,0.019952444,0.018109435,-0.02681762,-0.023968447,0.0076167537,0.0024004336,-0.0031947452,-0.009102191,0.01161441,0.024456328,-0.020849861,0.03245211,-0.03939576,0.032610156,-0.003915472,0.018662168,0.033424586,0.0022334373,-0.05455719,-0.026983546,0.032856036,0.036029432,-0.0014885289,0.004391824,0.015567486,-0.03197148,0.055639926,0.03968256,0.051932126,0.02085829,-0.014344375,0.03209727,-0.0031414526,-0.0116289565,-0.012679449,0.016672347,-0.016662449,-0.08507784,-0.08732204,-0.043744273,0.02794069,-0.03256268,0.026313396,0.015905902,0.00045430544,-0.036605127,0.0011906524,-0.00075158564,-0.06150169,0.05007316,-0.11647212,0.0057096966,-0.0181287,0.0018125521,-0.02409788,-0.01509104,-0.022469511,0.43180504,0.03043269,0.00845174,0.029723361,0.001228496,-0.021711664,0.033576217,-0.018890515,0.0026859678,-0.0487538,-0.0042434507,0.052122522,0.0068532918,0.010303135,-0.018421717,0.005331202,-0.030410279,0.019436976,0.09668868,0.0024470608,0.004374283,0.008876054,-0.033511765,0.02665309,-0.05604561,-0.056064248,0.0076088877,-0.022303978,0.028648218,-0.017328424,-0.024155546,-0.047506683,0.012386826,0.0030191287,-0.020781998,0.0013263575,0.018140368,0.02779017,-0.03505549,7.274109e-05,-0.04713754,0.03176444,4.4757326e-06,0.0066662487,0.030157393,0.027059412,-0.0068321154,0.00016231225,0.05926579,-0.030404095,-0.026861956,-0.023344254,0.022346562,-0.030269109,-0.01889313,-0.029619504,-0.015533005,-0.020624071,0.01688196,0.117904514,0.01581437,0.028205464,-0.0106012765,-0.010162508,-0.0269824,0.031219574,0.023202775,0.034318257,-0.0002231592,0.015635548,0.0288185,0.0021271429,0.0068023438,4.0760475e-05,-0.017544935,-0.011372174,-0.037031677,-0.005845812,-0.026048828,0.14449258,-0.034977637,-0.004978957,-0.0026303104,-0.0015946937,-0.0074374503,0.011193485,-0.00074279413,-0.033023458,-0.006639723,0.041633066,-0.0006386159,-0.04285129,0.014772294,0.006587891,-0.0237116,0.016713526,0.010433187,0.022298457,-0.018175315,0.008791162,-0.00139829,0.027178211,0.0037052722,-0.0064147394,0.0012854707,-0.002157317,0.0346731,-0.013887973,0.020605763,0.06836629,0.024398671,-0.026147867,-0.025676558,0.004165887,-0.048786167,-0.017245576,-0.025691314,0.03117353,-0.04402939,-0.011173948,-0.029697016,0.035415087,0.020064877,0.0097393785
TEST_008,0.0050597293,0.01796071,-0.0042771227,0.015098207,0.035648476,-0.007613878,0.01938419,0.003855266,-0.006058526,-0.005618476,0.0262159,-0.009735496,0.0082566,0.031351913,0.0005799575,-0.012048496,0.024159603,0.022894483,0.035115413,-0.014121582,-0.034212384,0.02360799,-0.02333298,0.017438816,-0.06744506,-0.003277168,-0.000821328,-0.004867037,-0.04508079,0.0036426047,0.021519583,0.014735586,-0.008484101,0.030833257,-0.002838662,-0.017209033,0.006588371,-0.05204589,0.021116283,0.010307645,0.023358587,0.02516436,0.012539079,-0.04279477,0.030571595,0.02480673,0.011763592,0.012712492,0.012884848,0.0029398296,0.029600685,-0.036280423,0.015874475,0.012754577,0.025758708,0.030899966,0.04314872,-0.00089987856,-0.05005803,-0.012637121,0.03431855,-0.009509777,-0.005763418,0.0055802357,0.018392617,0.0020184203,-0.012596618,-0.018955579,0.007837434,0.0042756167,-0.021377556,-0.019270463,0.03472572,0.0027457534,0.063081115,-0.019819122,0.017850233,-0.02201122,-0.00628548,0.02971749,0.005323428,0.035607506,-0.0022838179,-0.0017610299,0.036391065,0.0032527416,0.010209218,-0.00051065057,-0.032541923,0.023423726,-0.021928752,-0.0055084946,-0.007321477,-0.034465197,0.021021834,0.025401883,-0.0013306794,-0.00094859157,-0.052091617,-0.015125494,0.036931608,0.032778773,0.041993044,-0.01794507,-0.04852182,-0.03736806,-0.022796975,0.028941954,0.010576737,-0.029258773,-0.04265591,0.02674868,0.07870956,-0.004999172,-0.009669594,-0.004045739,-0.045789573,0.025384324,-0.08412154,-0.022653148,-0.052025873,-0.016744303,0.030863754,0.009106667,-0.023346527,0.008579405,-0.045046117,-0.0058611464,0.014888015,-0.0010860045,0.0022492574,0.060057145,0.028609509,-0.025846584,-0.037675835,-0.038142003,-0.0046425057,0.006086886,-0.031066135,-0.019664187,0.0084775975,-0.01722154,0.027783846,0.010667541,0.0048328256,-0.0008857677,-0.0028094451,0.036616687,-0.02346126,0.0012493362,-0.009778177,-0.03259115,-0.009408753,0.042408906,0.04359983,-0.018692171,0.00914655,0.024956487,-0.014818636,-0.04925713,0.012412514,0.020241097,0.030802105,-0.016179018,0.02032143,0.0015063646,0.009029385,0.01221417,-0.001684396,0.020004332,0.02391072,0.008784635,-0.010594935,-0.017707007,0.014207992,-0.051991507,0.030953854,-0.090711944,0.013077333,-0.037717625,0.13043204,-0.018825829,-0.04076269,0.027403109,0.0037914973,-0.03013485,-0.034783047,0.019781945,-0.013517916,-0.0361176,-0.03278072,0.007762282,-0.014225863,-0.011255888,0.016036168,0.0085471785,-0.0035532434,-0.0013115862,-0.050262094,0.003135536,0.029670918,-0.031214586,0.016718596,0.015689407,-0.0009719783,0.024218816,-0.033835135,-0.025458436,0.023366343,-0.051983856,-0.00084325956,-0.005431947,0.0070623974,-0.0017299483,0.022099312,-0.023600765,-0.04124735,-0.02983607,-0.034241296,-0.059703346,0.0059565366,0.016729405,0.014787475,0.0008086963,0.03927521,0.038937118,-0.029943688,0.011121852,0.0035227959,0.024698803,0.008445216,0.007364078,0.016102191,0.044970103,-0.009815734,-0.0052556517,-0.04790226,-0.0038894718,-0.018526282,0.018093122,0.00025470264,-0.00593962,0.008914726,0.0016828213,-0.002383755,0.07280013,-0.03437059,0.00018555133,0.012135285,-0.059857477,0.02103531,-0.02435726,0.0033938296,-0.017703725,0.008756372,-0.019690985,-0.014673989,-0.042204183,-0.002270268,-0.012304059,-0.016492406,-0.04128579,-0.0005474141,-0.0050453185,0.018673304,-0.029070083,0.05159794,-0.0019856463,-0.001435434,-0.03240458,-0.0011072903,0.04153814,-0.007114349,0.0018953364,0.013681974,0.012185822,-0.0178585,0.0037662426,-0.04459363,0.016720576,0.009546474,-0.06621693,-0.028707907,0.03543633,0.00692819,0.017281663,0.00044001633,-0.020368425,-0.020307949,-0.024544792,-0.0060803615,-0.033662718,-0.03854419,0.0024953277,-0.0110840695,0.006669663,-0.015027948,-0.053517193,0.042577345,0.03290933,-0.00082555134,-0.026204444,0.011659358,0.018416915,-0.036188178,0.002336355,-0.030650357,-0.0024846364,-0.020126263,-0.01922049,0.036544655,-0.010054934,0.005994909,-0.047458224,0.011983227,-0.0010864649,-0.061852816,-0.027783668,-0.010582491,-0.009777402,0.01268662,-0.07638975,-0.017508928,-0.0009591537,-0.0059179915,0.012887352,-0.018480303,0.04282518,-0.02694152,0.041310024,-0.056237187,0.016240276,0.018680427,0.0073239855,-0.022319242,0.050167106,-0.041403595,-0.051059913,0.011684471,-0.014896081,-0.012774897,-0.00036719334,-0.013278273,0.0011197431,0.0041446034,-0.044535026,-0.0090639405,0.015891138,-0.0016131981,0.07670723,-0.004665016,-0.017502034,0.005381001,0.009118874,-0.013220556,0.026654232,-0.009376545,0.02759312,-0.02138181,0.054742113,0.020099798,0.008100726,-0.009557074,0.014364033,-0.0088900225,0.0027732796,-0.005152801,-0.010929981,-0.018470963,-0.015960796,0.017127568,0.02734591,0.017762646,0.023459863,0.009564163,-0.04013626,0.010304473,-0.011535378,-0.0060927225,0.013453734,-0.03074147,0.04188211,0.037171144,0.0054214,-0.0145846475,-0.01816038,-0.0086560445,0.030928018,-0.055464063,0.012859213,0.00085859624,-0.023056665,-0.009162913,0.02209471,-0.010778405,-0.028074408,-0.018654918,-0.06770944,0.017272249,-0.050382443,-0.022208935,0.013878764,-0.01950679,-0.011554772,-0.026046898,-0.035049893,0.013325647,-0.035804708,-0.019683376,0.0045972443,0.0072994176,-0.008130712,0.0031379513,-0.4224843,0.03214915,3.664312e-05,-0.041686725,0.015946427,-0.034091316,0.025897967,0.051899098,-0.018908847,0.047932312,-0.00030102403,0.06242431,-0.0077045024,-0.013183647,0.006100319,-0.019940548,0.006669652,-0.0024388598,0.02936921,-0.010184649,0.02088273,0.055433154,0.03719832,-0.02273294,0.038287513,-0.0043206424,0.04644592,0.049998052,0.009994193,0.024405526,-0.009433572,0.020612635,-0.0044786143,-0.025536774,-0.03004859,-0.03520992,-0.017821332,-0.06422637,0.0050981985,0.014143764,-0.006942668,0.015379229,-0.0019319723,-0.024848724,-0.025193583,-0.011522086,-0.008917988,-0.035989966,0.057015516,0.024734098,-0.10670071,-0.022593575,-0.010649751,0.016408319,0.10418332,0.051146355,0.0050606327,0.013055109,0.010628355,0.018913807,-0.015570461,0.01708986,-0.02839851,0.012732894,-0.09529128,0.012356902,-0.013938418,0.034820005,0.028029611,0.00056168233,-0.018954193,-0.006302875,-0.026747182,-0.017511046,0.04108,0.015780196,-0.020410897,0.0044539156,0.02873679,-0.009341558,0.015184099,0.020272745,-0.0043993783,-0.005450575,0.0075055053,0.017679399,-0.03756175,-0.0015456001,-0.0390763,0.014322616,0.010171233,0.024097811,0.019851752,0.053697284,0.028909927,-0.03784499,0.005008194,-0.022567837,0.031649295,-0.014014059,0.044057198,0.02147668,-0.04235965,-0.03184465,-0.055869564,-0.00069758337,-0.062930614,0.014402988,0.040331576,0.0064265723,0.0047434927,0.027869357,0.032344885,0.03350772,-0.0031960597,-0.019457202,-0.0067642545,-0.004731795,0.06468069,0.036007043,0.0040523047,0.01149475,0.0016342205,-0.016846133,-0.04374886,0.00042539832,0.014231209,0.030624775,-0.03037037,0.012179904,-0.022242695,-0.016921261,0.008389888,-0.019246329,-3.409149e-05,-0.020604394,0.006945158,0.03607956,-0.02416397,-0.011665183,0.01011905,-0.01894377,-0.01970009,0.030440535,-0.042802997,0.019219857,-0.0102164475,-0.023067009,-0.0054706573,-0.010451728,0.004379482,-0.034123156,-0.024795609,0.025772033,-0.014044479,-0.0025022805,0.009849522,-0.016143767,0.06586908,-0.0029943099,-0.009831606,-0.011703118,0.031282563,0.0030676976,0.024555685,0.0124981,0.014893962,0.014604922,0.072486065,-0.015018477,0.0051728394,-0.032259922,0.018229915,-0.00029994766,-0.013713902,0.08026951,0.009689494,-0.0055542956,-0.004025184,0.061922435,0.007970622,0.023451254,0.029674614,-0.0026310706,0.0325511,-0.018927854,-0.043390393,0.014125671,0.031522702,-0.023173666,-0.01324299,0.0038547334,-0.025992934,-0.01363828,-0.00240241,-0.011414057,0.021855153,0.0017583249,-0.020499539,-0.0077787475,0.018825155,0.0185369,-0.019775232,0.006338513,-0.022503862,-0.0039890907,-0.022818515,0.00193568,0.017417306,0.011052779,-0.005031009,-0.020235399,-0.06200545,-0.073902935,0.012312372,0.01335413,-0.038806368,0.021100014,-0.02702957,-0.027225593,-0.0062496765,-0.018110586,0.00037218898,0.0443587,-0.024452807,0.00082784175,0.006184497,-0.0012206723,-0.027885148,0.021052744,-0.0062091807,0.4547286,-0.024815125,0.032787506,-0.022733346,0.016687324,-0.06056591,-0.0005821947,0.018654337,-0.021713985,-0.028774235,0.041950546,0.03410367,0.036649775,-0.03875109,-0.028115764,0.061113223,-0.0009992735,-0.005941439,0.0031572506,-0.030487917,0.029897075,0.0337463,0.060615376,0.045087136,-0.026119275,0.112630576,-0.0143073695,0.046000194,0.009646382,0.002610125,0.027161622,-0.00038857307,-0.009081296,-0.025736209,-0.012780988,0.008495684,0.032967877,0.051349,-0.028562395,-0.009566268,-0.0009798723,0.0043314374,0.016381674,-0.013062275,0.017075688,0.015374365,-0.013050214,0.0009888003,0.098575994,-0.0005513756,-0.02834993,0.0010375775,-0.031548794,-0.005573422,-0.012421138,-0.040929306,-0.0031512966,-0.02329873,0.0012269334,0.08057658,0.034540154,0.023493856,-0.008750056,-0.025206568,0.0013289929,0.011700423,-0.011060046,-0.010813952,-0.010300739,0.018167142,-0.012657724,0.025618806,0.038938265,0.015898895,-0.008710384,0.015024074,0.019377828,0.023291783,-0.02282655,0.08195317,-0.044720907,0.06784974,-0.00853618,0.018904835,-0.0016888581,-0.003756526,0.0468631,-0.006344516,0.027385069,0.028433517,-0.0010903613,0.002293126,-0.037325405,0.009528652,-0.0017964626,-0.043253195,0.023420783,0.009561151,0.015680073,0.020501386,0.002323355,0.039638452,0.007495858,-0.010421652,-0.0014064695,0.0013206477,0.07077879,0.019337052,-0.012921928,0.013091939,0.046133086,-0.044847146,0.0009130641,0.0024098828,-0.03811143,0.0067795916,-0.011738877,-0.005522437,-0.0042993575,0.0065730875,0.01232991,0.0153030595,0.002772645,0.0066033253
TEST_009,-0.0049551832,0.013901432,-0.0072413795,0.049387444,0.009759242,-0.019315403,0.00049391575,0.0043705525,0.023662373,0.014071537,0.03529437,-0.036130343,-0.013785012,-0.005408735,-0.013121421,-0.0072283125,-0.020395255,0.021615123,0.011169811,-0.0075433557,-0.023843966,0.024751851,-0.005724093,-0.011361916,0.05111008,0.0066042724,-0.02534608,-0.027281286,-0.0033041022,0.008915756,0.008368032,0.0033836039,-0.003795866,-0.028528294,-0.024587529,-0.030422747,0.043300506,-0.007093683,0.0007675717,-0.01698876,-0.02100747,0.042343255,-0.0064697703,0.007699794,0.0054018465,0.018426511,-0.007595561,0.013003783,-0.010681321,-0.03578844,-0.012066583,0.04520474,-0.016837431,-0.011065283,-0.006372283,-0.03779861,-0.00015810593,-0.031576775,-0.036348928,-0.009590393,0.012212766,-0.01599728,-0.006270064,0.008927733,0.0072020227,0.025806796,-0.012572267,0.025690477,0.0045711887,-0.020049231,-0.02075097,-0.018249504,0.023162052,0.0421839,0.04838851,0.0045264508,0.019879598,0.0041835196,0.004093605,0.022929627,0.017505864,0.020995202,-0.029110955,0.022005692,-0.019591058,-0.013377285,-0.027317833,0.019254863,-0.06390224,0.03145732,0.011955003,-0.020775085,-0.0069659245,0.001863404,0.03970143,0.021061908,0.038292155,-0.024069319,0.005269828,0.0011657523,-0.011088096,0.030571247,0.022299742,-0.0051071555,0.003919387,-0.013535869,-9.550361e-05,-0.016178677,0.0062884083,0.03894614,-0.013173981,0.011796719,0.016551835,-0.01210718,0.040382795,0.033134606,-0.02115847,0.014318883,-0.040377554,0.020565845,-0.017131692,-0.025267903,0.009143409,-0.010380822,-0.009222446,-0.049780734,0.0031025952,0.01996057,-0.022197142,0.025594855,0.019326182,0.17134601,0.041681565,0.005498374,-0.016950903,-0.03795973,-0.0071328003,0.005458773,-0.0056462204,-0.027273841,-0.001355256,-0.0025680466,0.00042923496,0.0027062465,0.018451486,-0.0064741955,0.04179574,0.08055523,-0.005896096,0.00037245298,-0.022181291,0.025760345,0.05228562,-0.0152264675,0.029290695,0.010013359,0.0018950166,-0.023241231,0.024832586,-0.017868698,-0.0013442239,-0.01586289,0.0075551174,0.0041699884,-0.010133502,0.0056391135,-0.020281786,0.0025901168,0.03802529,0.00092885416,0.014995078,0.015625777,-0.0031557241,-0.018469619,-0.00029925845,0.026991062,-0.013067788,-0.050888278,0.00069356547,-0.02037816,0.004628152,-0.039918043,-0.021567365,-0.007689241,-0.009984409,0.008920497,-0.030655174,-0.023043621,0.028164702,-0.005541524,0.03797073,-0.015025877,0.008667195,-0.015186316,0.021237852,0.020516343,0.0051057115,0.027124785,-0.012879122,-0.016311726,-0.011581339,-0.06001865,0.013728096,0.009692868,0.0123981545,-0.011785444,-0.0066746017,-0.026680235,-0.015316449,-0.02978489,0.043128747,0.035076622,-0.004446104,0.02425671,0.011667795,-0.047330882,0.027365167,-0.027484797,0.0025956538,-0.022119522,0.0006133371,0.027685817,0.0050516333,-0.014048866,0.015222676,-0.014118433,0.01611207,0.030959595,0.023462562,0.013670538,-0.0029349234,-0.013940002,-0.029032748,-0.0781818,0.019540979,-0.034321856,-0.052496012,0.004507044,0.02698523,0.007558269,-0.03375831,-0.0022949567,0.0056723696,0.03679836,0.008264574,0.014891551,-0.01634783,-0.009838084,0.025923794,-0.028923303,0.004927543,-0.005894531,0.001622299,-0.028667,-0.019299097,-0.00047412544,-0.0056482153,-0.03201445,-0.015187177,-0.02370476,-0.0010962648,0.015384905,0.014770906,0.0035475295,-0.020766336,0.04538657,-0.018726835,0.0106710205,0.007244538,0.023896046,0.026362335,-0.029128209,0.012232042,0.046256945,-0.0028075315,0.009565529,-0.010642862,-0.008636534,-0.03759158,0.014760236,-0.017369483,-0.026308784,-0.010178672,-0.011188489,-0.0004909516,-0.015661413,-0.0131204715,-0.0019391021,0.003920434,0.037366994,-0.02050411,0.009662587,-0.043233927,-0.00079248904,-0.040573318,-0.018725812,-0.05121112,-0.019719588,-0.011927024,0.0014317058,0.030047372,-0.002612994,-0.021947457,-0.013547927,-0.031946395,-0.013878842,0.004270607,0.02365265,-0.008084807,0.0077353762,-0.02204108,0.012757355,0.020201135,0.01276574,-0.007860223,0.037454706,-0.055255335,-0.013679337,0.014965642,0.020552963,0.01579497,-0.03512166,-0.030408634,0.006520336,-0.015338639,0.015069853,-0.0030229196,-0.013800565,0.0031141597,0.048165914,0.0006042788,-0.015126304,0.004661007,0.011369875,-0.02420001,-0.00271116,0.011217534,-0.012941319,-0.006746865,0.030030899,-0.00063137454,0.017855423,-0.007936738,-0.02998683,-0.0048205233,-0.00087340036,-0.015772395,0.013421247,-0.020533873,0.032737248,0.0047533214,-0.0027902932,-0.02081062,0.017778331,-0.0021717714,0.012869082,0.008524388,-0.009237692,0.027559107,-0.0155849755,0.027728148,0.01137498,0.03142629,0.026995389,0.010166585,0.01020275,0.03529367,-0.01616905,0.021221705,0.0015212466,-0.034794286,0.0007419329,0.0020262252,0.04016475,-0.033390813,-0.014976164,-0.014604667,-0.008174375,0.012064274,-0.010232006,0.03507944,0.018601576,0.015677033,0.027388437,-0.015269404,-0.022275778,-0.0028008928,-0.0024034164,0.0044283313,0.0014818221,0.04638153,-0.005168847,-0.010006727,-0.0192295,-0.006406471,-0.032480333,0.014001822,-0.062345278,-0.0062863207,-0.04055742,0.0023581414,0.0017750023,-0.0020851279,-0.033245716,-0.002424698,-0.00815724,-0.012058653,0.009828207,-0.010254539,0.010139615,0.013734828,0.0111565385,0.015863102,-0.49294406,0.0243885,-0.0020735515,-0.0029689968,1.0921463e-05,-0.0027659952,-0.031973157,0.020288914,0.021170784,-0.0022741617,0.020747444,0.018393002,0.014178552,0.01745691,0.024138901,0.008804239,-0.00044052195,0.014743882,-0.008446557,-0.026285142,-0.04581004,0.052821595,0.011926522,-0.027512042,0.005165556,0.0015100343,0.012116856,0.04946542,-0.0101076495,-0.051330663,-0.03580403,-0.013557935,0.033569045,0.0252975,-0.0068634646,-0.013894302,0.018919135,-0.028963696,-0.014688733,0.010204609,-0.0007341554,0.0057600946,0.02200084,-0.027098903,0.020002402,-0.021072721,0.0087664705,0.0086320285,-0.0058333846,-0.0019604322,-0.13416123,-0.053339675,-0.023040066,0.023624478,-0.023517445,0.058835573,0.035627097,0.024669558,0.022261754,0.0391489,0.006297726,0.0133357225,-0.015956055,-0.0004935192,0.020991985,0.004452348,0.0025541987,0.020434868,-0.040466074,-0.042759005,-0.009937306,-0.020322185,-0.033327397,0.009466346,-0.015677089,0.025171246,-0.014163252,0.031998463,-0.046023212,0.0063098725,-1.3080598e-05,0.012166415,-0.019653285,0.026067117,0.0043186913,0.0075446083,0.009276454,0.025044624,0.025718965,0.03187922,-0.00012733864,0.005762047,0.028453892,0.0181763,0.0055922936,-0.027744057,0.0019932883,0.00031204565,-0.022920715,-0.022527788,0.015528879,0.016925476,-0.021113867,0.029596053,-0.011489056,-0.00236556,-0.0049100467,0.014315981,-0.0034922636,0.023088753,-0.00088194443,0.008300765,0.024313571,-0.008915602,-0.013979333,-0.1292363,0.0205442,0.0006093659,0.036563557,0.029348807,-0.053355083,0.012020604,-0.004074134,-0.016642818,-0.0023288378,0.020467736,-0.013515687,-0.0060124984,-0.0052262237,-0.006056811,0.010175298,0.019088984,-0.025332473,-0.03553092,0.010286274,0.061296638,-0.0135947075,0.017854612,-0.013311739,0.006606794,-0.007366492,0.0027243323,-0.00014237784,-0.04708834,0.0028992204,-0.0038735138,-0.018651627,0.049061216,-0.04670857,0.018562416,0.034242764,-0.0017433689,-0.011314849,0.012347188,-0.0019397595,0.0051389686,0.02387774,0.015219363,0.014184424,0.010289409,0.00034790262,-0.005430036,0.008627815,0.008738609,0.017926082,0.033160686,-0.02881259,0.017236084,-0.0010442961,-0.050938472,-1.4958002e-05,-0.025739746,-0.0016571729,0.014424482,-0.012063124,0.01816282,-0.024237905,0.004053846,0.010098274,-0.00329283,0.04047818,0.02517802,-9.3812116e-05,-0.004051664,-0.02860903,-0.016486866,0.0025903862,-0.002745101,0.041931868,-0.020596644,0.030297317,0.0062124263,-0.06967533,0.010188143,0.0142669985,-0.057127096,0.02463921,-0.0077576544,0.0021025517,0.018703213,-0.0076533174,-0.013254222,-0.03556026,0.03570578,0.023270583,0.030277949,-0.004449666,0.0390542,-0.020513011,-0.01945207,0.034449168,-0.033634674,0.045322955,0.011878421,-0.013458645,0.017536279,-0.0011906815,-0.0163231,-0.012296649,-0.018620847,0.0030079759,-0.037577853,0.057302497,-0.0023276291,-0.03895394,-0.017417278,-0.0063902694,-0.008310656,0.018843042,-0.01821217,0.034182504,0.5311557,0.0016129062,0.044261526,-0.028047519,0.00920648,0.0063827606,0.019951476,0.0292726,0.025836578,-0.034388915,0.01226006,0.021756433,-0.0145106185,-0.0031302955,0.016039325,0.044330124,-0.04534989,-0.0074420213,-0.0018879438,0.002259371,-0.024035202,-0.0007436962,-0.018202752,0.0076586525,0.0053097573,-0.07188182,-0.019421466,0.005020402,0.01297384,-0.0052828225,0.04164014,-0.0200065,0.022886325,0.019258903,-0.0022982422,0.0096982075,-0.003488425,0.030658785,-0.021993075,-0.022491923,0.026377255,-0.0029180655,-0.0033200185,0.0055946214,0.00021060517,-0.019731212,0.0073584663,-0.03150349,0.07989946,0.018309724,-0.010143558,0.007941776,-0.016234161,-0.017724847,-0.024704568,-0.01575554,0.0014673341,0.014847021,0.048867047,0.10937055,-0.0067501273,0.036938157,0.022827819,-0.0060112444,-0.013083261,0.011871334,0.0048539857,-0.0041474504,-0.0069520706,-0.0033555026,-0.012607301,-0.01149515,-0.0104657225,-0.0028977543,0.011562144,-0.0027248273,0.013678729,-0.0045345277,0.012102569,-0.037974674,0.043083142,-0.08350985,0.018678209,0.01179936,0.016562494,0.021116808,0.022067385,-0.02500629,-0.015712129,-0.021199398,-0.024629897,-0.04588429,-0.00061507226,0.0104029225,-0.015493729,0.010363661,0.0035200757,0.021481644,0.0038845935,0.0026450139,-0.00230745,0.057695623,0.010192046,-0.0027813604,-0.029665852,-0.018412644,-0.0033777633,0.011844859,-0.006660373,-0.006796983,0.032417282,0.0018393594,0.031706586,-0.0029412447,-0.007539807,0.019948635,0.0055536097,0.0108533595,0.0005396912,-0.005074001,-0.030682046,-0.03369251,-0.015172168,0.0033782986
